0.0,0.0,0.0,0.0,0.0,0.0,0.0,0.0,0.0,0.0,0.0,0.0,0.0,0.0,0.0,0.0,0.0,0.0,0.0,0.0,0.0,0.0,0.0,0.0,0.0,0.0
0.0,0.0,0.0,0.0,0.0,0.0,0.0,0.0,0.0,0.0,0.0,0.0,0.0,0.0,0.0,0.0,0.0,0.0,0.0,0.0,0.0,0.0,0.0,0.0,0.0,0.0
0.0,0.0,0.0,0.0,0.0,0.0,0.0,0.0,0.0,0.0,0.0,0.0,0.0,0.0,0.0,0.0,0.0,0.0,0.0,0.0,0.0,0.0,0.0,0.0,0.0,0.0
0.0,0.0,0.0,0.0,0.0,0.0,0.0,0.0,0.0,0.0,0.0,0.0,0.0,0.0,0.0,0.0,0.0,0.0,0.0,0.0,0.0,0.0,0.0,0.0,0.0,0.0
0.0,0.0,0.0,0.0,0.0,0.0,0.0,0.0,0.0,0.0,0.0,0.0,0.0,0.0,0.0,0.0,0.0,0.0,0.0,0.0,0.0,0.0,0.0,0.0,0.0,0.0
0.0,0.0,0.0,0.0,0.0,0.0,0.0,0.0,0.0,0.0,0.0,0.0,0.0,0.0,0.0,0.0,0.0,0.0,0.0,0.0,0.0,0.0,0.0,0.0,0.0,0.0
0.0,0.0,0.0,0.0,0.0,0.0,0.0,0.0,0.0,0.0,0.0,0.0,0.0,0.0,0.0,0.0,0.0,0.0,0.0,0.0,0.0,0.0,0.0,0.0,0.0,0.0
0.0,0.0,0.0,0.0,0.0,0.0,0.0,0.0,0.0,0.0,0.0,0.0,0.0,0.0,0.0,0.0,0.0,0.0,0.0,0.0,0.0,0.0,0.0,0.0,0.0,0.0
0.0,0.0,0.0,0.0,0.0,0.0,0.0,0.0,0.0,0.0,0.0,0.0,0.0,0.0,0.0,0.0,0.0,0.0,0.0,0.0,0.0,0.0,0.0,0.0,0.0,0.0
0.0,0.0,0.0,0.0,0.0,0.0,0.0,0.0,0.0,0.0,0.0,0.0,0.0,0.0,0.0,0.0,0.0,0.0,0.0,0.0,0.0,0.0,0.0,0.0,0.0,0.0
0.0,0.0,0.0,0.0,0.0,0.0,0.0,0.0,0.0,0.0,0.0,0.0,0.0,0.0,0.0,0.0,0.0,0.0,0.0,0.0,0.0,0.0,0.0,0.0,0.0,0.0
0.0,0.0,0.0,0.0,0.0,0.0,0.0,0.0,0.0,0.0,0.0,0.0,0.0,0.0,0.0,0.0,0.0,0.0,0.0,0.0,0.0,0.0,0.0,0.0,0.0,0.0
0.0,0.0,0.0,0.0,0.0,0.0,0.0,0.0,0.0,0.0,0.0,0.0,0.0,0.0,0.0,0.0,0.0,0.0,0.0,0.0,0.0,0.0,0.0,0.0,0.0,0.0
0.0,0.0,0.0,0.0,0.0,0.0,0.0,0.0,0.0,0.0,0.0,0.0,0.0,0.0,0.0,0.0,0.0,0.0,0.0,0.0,0.0,0.0,0.0,0.0,0.0,0.0
0.0,0.0,0.0,0.0,0.0,0.0,0.0,0.0,0.0,0.0,0.0,0.0,0.0,0.0,0.0,0.0,0.0,0.0,0.0,0.0,0.0,0.0,0.0,0.0,0.0,0.0
0.0,0.0,0.0,0.0,0.0,0.0,0.0,0.0,0.0,0.0,0.0,0.0,0.0,0.0,0.0,0.0,0.0,0.0,0.0,0.0,0.0,0.0,0.0,0.0,0.0,0.0
0.0,0.0,0.0,0.0,0.0,0.0,0.0,0.0,0.0,0.0,0.0,0.0,0.0,0.0,0.0,0.0,0.0,0.0,0.0,0.0,0.0,0.0,0.0,0.0,0.0,0.0
0.0,0.0,0.0,0.0,0.0,0.0,0.0,0.0,0.0,0.0,0.0,0.0,0.0,0.0,0.0,0.0,0.0,0.0,0.0,0.0,0.0,0.0,0.0,0.0,0.0,0.0
0.0,0.0,0.0,0.0,0.0,0.0,0.0,0.0,0.0,0.0,0.0,0.0,0.0,0.0,0.0,0.0,0.0,0.0,0.0,0.0,0.0,0.0,0.0,0.0,0.0,0.0
0.0,0.0,0.0,0.0,0.0,0.0,0.0,0.0,0.0,0.0,0.0,0.0,0.0,0.0,0.0,0.0,0.0,0.0,0.0,0.0,0.0,0.0,0.0,0.0,0.0,0.0
0.0,0.0,0.0,0.0,0.0,0.0,0.0,0.0,0.0,0.0,0.0,0.0,0.0,0.0,0.0,0.0,0.0,0.0,0.0,0.0,0.0,0.0,0.0,0.0,0.0,0.0
0.0,0.0,0.0,0.0,0.0,0.0,0.0,0.0,0.0,0.0,0.0,0.0,0.0,0.0,0.0,0.0,0.0,0.0,0.0,0.0,0.0,0.0,0.0,0.0,0.0,0.0
0.0,0.0,0.0,0.0,0.0,0.0,0.0,0.0,0.0,0.0,0.0,0.0,0.0,0.0,0.0,0.0,0.0,0.0,0.0,0.0,0.0,0.0,0.0,0.0,0.0,0.0
0.0,0.0,0.0,0.0,0.0,0.0,0.0,0.0,0.0,0.0,0.0,0.0,0.0,0.0,0.0,0.0,0.0,0.0,0.0,0.0,0.0,0.0,0.0,0.0,0.0,0.0
0.0,0.0,0.0,0.0,0.0,0.0,0.0,0.0,0.0,0.0,0.0,0.0,0.0,0.0,0.0,0.0,0.0,0.0,0.0,0.0,0.0,0.0,0.0,0.0,0.0,0.0
0.0,0.0,0.0,0.0,0.0,0.0,0.0,0.0,0.0,0.0,0.0,0.0,0.0,0.0,0.0,0.0,0.0,0.0,0.0,0.0,0.0,0.0,0.0,0.0,0.0,0.0
0.0,0.0,0.0,0.0,0.0,0.0,0.0,0.0,0.0,0.0,0.0,0.0,0.0,0.0,0.0,0.0,0.0,0.0,0.0,0.0,0.0,0.0,0.0,0.0,0.0,0.0
0.0,0.0,0.0,0.0,0.0,0.0,0.0,0.0,0.0,0.0,0.0,0.0,0.0,0.0,0.0,0.0,0.0,0.0,0.0,0.0,0.0,0.0,0.0,0.0,0.0,0.0
0.0,0.0,0.0,0.0,0.0,0.0,0.0,0.0,0.0,0.0,0.0,0.0,0.0,0.0,0.0,0.0,0.0,0.0,0.0,0.0,0.0,0.0,0.0,0.0,0.0,0.0
0.0,0.0,0.0,0.0,0.0,0.0,0.0,0.0,0.0,0.0,0.0,0.0,0.0,0.0,0.0,0.0,0.0,0.0,0.0,0.0,0.0,0.0,0.0,0.0,0.0,0.0
0.0,0.0,0.0,0.0,0.0,0.0,0.0,0.0,0.0,0.0,0.0,0.0,0.0,0.0,0.0,0.0,0.0,0.0,0.0,0.0,0.0,0.0,0.0,0.0,0.0,0.0
-6.74750302929e-08,-4.67727070279e-08,-4.83974536848e-07,-7.15202677527e-08,-5.52947461371e-08,-3.96309420595e-08,-5.14903474434e-08,-7.10417579069e-08,-3.85959189951e-08,-4.04678881991e-08,2.52782034184e-05,-2.77802082642e-07,-4.74169521176e-08,-7.00493658178e-08,-2.45487509651e-07,-4.5435865137e-08,-5.2689699771e-08,-1.92323751746e-07,-4.19889801797e-08,-8.79063204257e-08,-7.20913467144e-07,-1.3296577364e-07,-1.60008320985e-07,-6.7125135515e-08,-4.01221722342e-08,-5.84698539846e-08
-5.39800242343e-07,-3.74181656223e-07,-3.87179629479e-06,-5.72162142021e-07,-4.42357969097e-07,-3.17047536476e-07,-4.11922779547e-07,-5.68334063256e-07,-3.08767351961e-07,-3.23743105592e-07,0.000202225627347,-2.22241666114e-06,-3.79335616941e-07,-5.60394926542e-07,-1.96390007721e-06,-3.63486921096e-07,-4.21517598168e-07,-1.53859001397e-06,-3.35911841438e-07,-7.03250563406e-07,-5.76730773715e-06,-1.06372618912e-06,-1.28006656788e-06,-5.3700108412e-07,-3.20977377874e-07,-4.67758831877e-07
-2.29415102996e-07,-1.59027203895e-07,-1.64551342528e-06,-2.43168910359e-07,-1.88002136866e-07,-1.34745203002e-07,-1.75067181307e-07,-2.41541976884e-07,-1.31226124583e-07,-1.37590819877e-07,8.59458916227e-05,-9.44527080984e-07,-1.612176372e-07,-2.3816784378e-07,-8.34657532815e-07,-1.54481941466e-07,-1.79144979221e-07,-6.53900755936e-07,-1.42762532611e-07,-2.98881489448e-07,-2.45110578829e-06,-4.52083630376e-07,-5.4402829135e-07,-2.28225460751e-07,-1.36415385596e-07,-1.98797503548e-07
-1.28472497016e-07,-5.16565464991e-08,-3.492989846e-07,-5.59334519384e-08,-5.87618182202e-07,-4.57419094741e-08,-1.23903025257e-07,-8.85180873553e-08,-3.40102446148e-08,-3.46373826869e-08,1.90566254705e-05,-1.66073293916e-07,-4.26719831427e-08,-2.04211718644e-06,-1.40900720492e-07,-5.03915316848e-08,-1.29200991057e-07,-2.20371120076e-06,-8.60860960825e-07,-2.72993647374e-07,-3.10291640961e-07,-6.92241589358e-08,-9.36059111438e-08,-1.36586859607e-07,-4.20523108214e-08,-4.32322871968e-08
-1.01482484898e-06,-3.2947463688e-07,-1.55709169861e-06,-2.73253448373e-07,-5.65500283747e-06,-2.98895326503e-07,-1.0330688628e-06,-6.01013841925e-07,-1.85718770168e-07,-1.84502274073e-07,8.94534410312e-05,-5.49524608588e-07,-2.37052022956e-07,-2.01409744011e-05,-4.27057166316e-07,-3.221718563e-07,-1.08125111148e-06,-2.12678170006e-05,-8.44065368754e-06,-2.37831119204e-06,-2.19262541037e-07,-1.60378494798e-07,-2.96025827497e-07,-1.09736805401e-06,-2.60034419277e-07,-1.98443456029e-07
-1.31927230368e-06,-4.28317027944e-07,-2.02421920819e-06,-3.55229482885e-07,-7.35150368871e-06,-3.88563924453e-07,-1.34298952164e-06,-7.81317994503e-07,-2.41434401218e-07,-2.39852956295e-07,0.000116289473341,-7.14381991164e-07,-3.08167629843e-07,-2.61832667214e-05,-5.55174316211e-07,-4.1882341319e-07,-1.40562644493e-06,-2.76481621007e-05,-1.09728497938e-05,-3.09180454965e-06,-2.85041303348e-07,-2.08492043238e-07,-3.84833575746e-07,-1.42657847021e-06,-3.38044745061e-07,-2.57976492838e-07
-1.52223727348e-07,-4.9421195532e-08,-2.33563754791e-07,-4.0988017256e-08,-8.4825042562e-07,-4.48342989754e-08,-1.5496032942e-07,-9.01520762888e-08,-2.78578155252e-08,-2.76753411109e-08,1.34180161547e-05,-8.24286912882e-08,-3.55578034434e-08,-3.02114616017e-06,-6.40585749474e-08,-4.8325778445e-08,-1.62187666723e-07,-3.19017255009e-06,-1.26609805313e-06,-3.56746678806e-07,-3.28893811556e-08,-2.40567742197e-08,-4.44038741245e-08,-1.64605208101e-07,-3.90051628916e-08,-2.97665184044e-08
0.0,0.0,0.0,0.0,0.0,0.0,0.0,0.0,0.0,0.0,0.0,0.0,0.0,0.0,0.0,0.0,0.0,0.0,0.0,0.0,0.0,0.0,0.0,0.0,0.0,0.0
0.0,0.0,0.0,0.0,0.0,0.0,0.0,0.0,0.0,0.0,0.0,0.0,0.0,0.0,0.0,0.0,0.0,0.0,0.0,0.0,0.0,0.0,0.0,0.0,0.0,0.0
0.0,0.0,0.0,0.0,0.0,0.0,0.0,0.0,0.0,0.0,0.0,0.0,0.0,0.0,0.0,0.0,0.0,0.0,0.0,0.0,0.0,0.0,0.0,0.0,0.0,0.0
0.0,0.0,0.0,0.0,0.0,0.0,0.0,0.0,0.0,0.0,0.0,0.0,0.0,0.0,0.0,0.0,0.0,0.0,0.0,0.0,0.0,0.0,0.0,0.0,0.0,0.0
-3.12384479493e-08,-4.9181512505e-08,-8.50902843723e-06,-7.7003454591e-08,-2.166672489e-07,-4.13531223658e-08,-1.1154704142e-07,-3.29680663945e-08,-3.11070226735e-08,-3.52030666288e-08,2.10012871842e-05,-6.94879768944e-07,-3.2787270392e-08,-3.80560982419e-08,-2.78954857879e-07,-3.63954229541e-08,-1.14034729091e-07,-4.75739631334e-08,-5.98457937667e-08,-6.6030116154e-08,-1.03070919799e-06,-1.39768764909e-07,-9.60468695354e-08,-3.1528960733e-08,-3.10605924661e-08,-5.95114356754e-08
-2.26478747632e-07,-3.56565965661e-07,-6.169045617e-05,-5.58275045785e-07,-1.57083755453e-06,-2.99810137152e-07,-8.08716050296e-07,-2.3901848136e-07,-2.25525914383e-07,-2.55222233059e-07,0.000152259332086,-5.03787832485e-06,-2.37707710342e-07,-2.75906712254e-07,-2.02242271962e-06,-2.63866816417e-07,-8.26751785907e-07,-3.44911232717e-07,-4.33882004808e-07,-4.78718342117e-07,-7.47264168541e-06,-1.01332354559e-06,-6.96339804132e-07,-2.28584965315e-07,-2.25189295379e-07,-4.31457908647e-07
-8.59057318606e-08,-1.35249159389e-07,-2.33998282024e-05,-2.11759500125e-07,-5.95834934475e-07,-1.13721086506e-07,-3.06754363906e-07,-9.06621825848e-08,-8.55443123522e-08,-9.68084332291e-08,5.77535397566e-05,-1.9109193646e-06,-9.0164993578e-08,-1.04654270165e-07,-7.67125859166e-07,-1.00087413124e-07,-3.13595504999e-07,-1.30828398617e-07,-1.64575932858e-07,-1.81582819424e-07,-2.83445029447e-06,-3.84364103498e-07,-2.64128891222e-07,-8.67046420159e-08,-8.54166292819e-08,-1.63656448107e-07
-7.80961198732e-09,-1.22953781263e-08,-2.12725710931e-06,-1.92508636478e-08,-5.4166812225e-08,-1.03382805914e-08,-2.78867603551e-08,-8.24201659861e-09,-7.77675566838e-09,-8.80076665719e-09,5.25032179605e-06,-1.73719942236e-07,-8.196817598e-09,-9.51402456047e-09,-6.97387144696e-08,-9.09885573852e-09,-2.85086822727e-08,-1.18934907834e-08,-1.49614484417e-08,-1.65075290385e-08,-2.57677299497e-07,-3.49421912271e-08,-2.40117173839e-08,-7.88224018326e-09,-7.76514811653e-09,-1.48778589189e-08
0.0,0.0,0.0,0.0,0.0,0.0,0.0,0.0,0.0,0.0,0.0,0.0,0.0,0.0,0.0,0.0,0.0,0.0,0.0,0.0,0.0,0.0,0.0,0.0,0.0,0.0
2.08226447905e-06,-1.54851762329e-07,-7.83405717289e-09,-1.54259516494e-08,-1.8541929888e-08,-7.84942738953e-09,-7.76391932436e-09,-2.38384922591e-08,-7.71344370934e-09,-8.2668049908e-09,-8.52340892111e-09,-7.7856839424e-09,-7.46910821201e-08,-2.56283239727e-08,-3.80901699547e-08,-2.85837427225e-08,-7.85688436728e-09,-9.86440063429e-08,-2.89393703568e-08,-9.82857476551e-09,-7.95738149811e-09,-7.72826441752e-09,-1.0776416785e-08,-8.56244006719e-09,-7.88736586627e-09,-1.00311645427e-08
2.54752671413e-05,-1.60764359101e-06,-1.09191257463e-07,-1.90784633188e-07,-2.2306744785e-07,-1.09326567783e-07,-1.09671753306e-07,-3.72422843183e-07,-1.07926181143e-07,-1.15064316834e-07,-1.17221725887e-07,-1.08717678867e-07,-7.79701713672e-07,-4.79439099537e-07,-4.34162054651e-07,-3.21291525675e-07,-1.10813961835e-07,-1.12280937305e-06,-4.25610693993e-07,-1.30099880598e-07,-1.12167113359e-07,-1.08137687168e-07,-1.66043337708e-07,-1.21789111775e-07,-1.09738626832e-07,-1.32050730097e-07
0.000115671966815,-6.09201566136e-06,-5.51969558393e-07,-8.74929030449e-07,-9.96930779452e-07,-5.52361957537e-07,-5.59785996225e-07,-2.03101752651e-06,-5.47111733967e-07,-5.81072315275e-07,-5.86734542076e-07,-5.50316967056e-07,-2.97579926544e-06,-2.87523343635e-06,-1.83727422553e-06,-1.33923809945e-06,-5.64992621141e-07,-4.74441568753e-06,-2.23371599907e-06,-6.32202354807e-07,-5.71657094742e-07,-5.48199145219e-07,-8.97893740514e-07,-6.24689064571e-07,-5.54013642671e-07,-6.38838914406e-07
0.000157545567973,-6.62414937081e-06,-8.29625729996e-07,-1.20365508069e-06,-1.33576412018e-06,-8.29852602523e-07,-8.48079036789e-07,-3.23735881183e-06,-8.24237430411e-07,-8.72638717612e-07,-8.7462327216e-07,-8.28064522047e-07,-3.27091729768e-06,-4.88363617464e-06,-2.31661742146e-06,-1.65832498549e-06,-8.551986846e-07,-5.97173947413e-06,-3.45966891289e-06,-9.1852955129e-07,-8.64996780147e-07,-8.25894532156e-07,-1.42240626923e-06,-9.501714645e-07,-8.317983562e-07,-9.24490676443e-07
3.12910450798e-05,-1.68155105065e-06,-1.4775461463e-07,-2.36441029055e-07,-2.70127634062e-07,-1.47866935142e-07,-1.49712453385e-07,-5.39970243923e-07,-1.46415861204e-07,-1.55559650492e-07,-1.57206271732e-07,-1.47293728172e-07,-8.20690329261e-07,-7.58383924299e-07,-5.00737498531e-07,-3.65609148737e-07,-1.51120359538e-07,-1.29327101008e-06,-5.95881932025e-07,-1.69867546776e-07,-1.52908736332e-07,-1.46706490909e-07,-2.3889230003e-07,-1.66995000654e-07,-1.48319837045e-07,-1.71724585936e-07
2.08226447905e-06,-1.54851762329e-07,-7.83405717289e-09,-1.54259516494e-08,-1.8541929888e-08,-7.84942738953e-09,-7.76391932436e-09,-2.38384922591e-08,-7.71344370934e-09,-8.2668049908e-09,-8.52340892111e-09,-7.7856839424e-09,-7.46910821201e-08,-2.56283239727e-08,-3.80901699547e-08,-2.85837427225e-08,-7.85688436728e-09,-9.86440063429e-08,-2.89393703568e-08,-9.82857476551e-09,-7.95738149811e-09,-7.72826441752e-09,-1.0776416785e-08,-8.56244006719e-09,-7.88736586627e-09,-1.00311645427e-08
0.0,0.0,0.0,0.0,0.0,0.0,0.0,0.0,0.0,0.0,0.0,0.0,0.0,0.0,0.0,0.0,0.0,0.0,0.0,0.0,0.0,0.0,0.0,0.0,0.0,0.0
0.0,0.0,0.0,0.0,0.0,0.0,0.0,0.0,0.0,0.0,0.0,0.0,0.0,0.0,0.0,0.0,0.0,0.0,0.0,0.0,0.0,0.0,0.0,0.0,0.0,0.0
0.0,0.0,0.0,0.0,0.0,0.0,0.0,0.0,0.0,0.0,0.0,0.0,0.0,0.0,0.0,0.0,0.0,0.0,0.0,0.0,0.0,0.0,0.0,0.0,0.0,0.0
0.0,0.0,0.0,0.0,0.0,0.0,0.0,0.0,0.0,0.0,0.0,0.0,0.0,0.0,0.0,0.0,0.0,0.0,0.0,0.0,0.0,0.0,0.0,0.0,0.0,0.0
0.0,0.0,0.0,0.0,0.0,0.0,0.0,0.0,0.0,0.0,0.0,0.0,0.0,0.0,0.0,0.0,0.0,0.0,0.0,0.0,0.0,0.0,0.0,0.0,0.0,0.0
-7.80961198732e-09,-1.22953781263e-08,-2.12725710931e-06,-1.92508636478e-08,-5.4166812225e-08,-1.03382805914e-08,-2.78867603551e-08,-8.24201659861e-09,-7.77675566838e-09,-8.80076665719e-09,5.25032179605e-06,-1.73719942236e-07,-8.196817598e-09,-9.51402456047e-09,-6.97387144696e-08,-9.09885573852e-09,-2.85086822727e-08,-1.18934907834e-08,-1.49614484417e-08,-1.65075290385e-08,-2.57677299497e-07,-3.49421912271e-08,-2.40117173839e-08,-7.88224018326e-09,-7.76514811653e-09,-1.48778589189e-08
-7.47848288408e-07,-6.42271169523e-07,-4.26463987992e-05,-9.90197955434e-07,-1.47265533528e-06,-5.42767529182e-07,-9.65374813381e-07,-7.87732119938e-07,-4.87344872987e-07,-5.22624793621e-07,0.000322009623095,-5.62717770403e-06,-5.74295285823e-07,-8.01696734448e-07,-3.46468444732e-06,-5.72702189527e-07,-9.87363578847e-07,-1.94499659981e-06,-6.47206893567e-07,-1.08829240652e-06,-1.11264125952e-05,-1.82565140485e-06,-1.87228580178e-06,-7.46006542934e-07,-5.00872216205e-07,-7.94030146401e-07
-2.686392292e-06,-2.43733464429e-06,-0.000153302915685,-3.51408492066e-06,-1.41797622717e-05,-2.00216346424e-06,-3.45977935535e-06,-2.85622422679e-06,-1.78259667272e-06,-1.90442924109e-06,0.0011471511849,-3.88708171369e-05,-2.10074160342e-06,-1.05632052532e-05,-1.20049416659e-05,-2.07569695036e-06,-3.60252513347e-06,-1.93933467761e-05,-2.34675124528e-06,-3.84965844148e-06,-3.84730455888e-05,-6.65610159591e-06,-1.56409908102e-05,-2.71959152278e-06,-1.82719002042e-06,-3.16108367162e-06
-2.78664846381e-06,-3.08063197553e-06,-6.66416890617e-05,-2.86150944758e-06,-7.12106037996e-05,-2.17288419352e-06,-2.54829476885e-06,-3.13664597305e-06,-1.91890669809e-06,-1.97551406953e-06,0.00102380361192,-0.000157487108469,-2.31439133675e-06,-6.25507240568e-05,-7.61662204846e-06,-2.10709275361e-06,-3.11795395181e-06,-0.000106260270226,-2.12993335501e-06,-3.3100311087e-06,-2.19118916584e-05,-6.63416799287e-06,-7.47479409889e-05,-3.08079425657e-06,-1.9466094983e-06,-4.952000668e-06
-1.86701952107e-06,-1.29244037434e-06,-2.33245305768e-05,-1.10166478027e-06,-2.61344649541e-05,-1.04639287819e-06,-1.81773398548e-06,-1.51560259324e-06,-8.49074634797e-07,-8.56738606269e-07,0.000449138571034,-4.02663226704e-05,-9.84103963832e-07,-3.45009384462e-05,-2.24394352885e-06,-1.02120507235e-06,-2.23460480816e-06,-8.70644532801e-05,-9.15314011666e-06,-3.38954012923e-06,-4.01395589455e-06,-1.83973390327e-06,-2.06537384966e-05,-1.98910516511e-06,-9.27063697205e-07,-1.67324096301e-06
-4.87352442971e-06,-1.62817195407e-06,-9.2138483087e-06,-1.3484006094e-06,-2.81154925832e-05,-1.47267300472e-06,-4.96016838466e-06,-2.90951107209e-06,-9.28888893437e-07,-9.2326004522e-07,0.000450295956717,-4.77418014121e-06,-1.1758773435e-06,-9.64140399258e-05,-2.1151264572e-06,-1.57793414342e-06,-5.22438346651e-06,-0.000107226204933,-4.01431316579e-05,-1.13605051084e-05,-1.12725409915e-06,-8.4911566457e-07,-2.57735053747e-06,-5.26572959134e-06,-1.28176302144e-06,-1.03526511847e-06
-7.30673891269e-06,-2.37221738553e-06,-1.121106023e-05,-1.96742482829e-06,-4.07160204298e-05,-2.15204635082e-06,-7.43809581214e-06,-4.32729966186e-06,-1.33717514521e-06,-1.32841637332e-06,0.000644064775425,-3.95657718183e-06,-1.70677456528e-06,-0.000145015015688,-3.07481159747e-06,-2.31963736536e-06,-7.78500800269e-06,-0.000153128282404,-6.07727065503e-05,-1.71238405827e-05,-1.57869029547e-06,-1.15472516255e-06,-2.13138595798e-06,-7.90104998885e-06,-1.8722478188e-06,-1.42879288341e-06
1.29066738516e-05,-2.04786603223e-06,-4.11700361755e-06,-1.46193712399e-06,-1.31728651916e-05,-7.78553776594e-07,-2.9567292214e-06,-1.92443893952e-06,-6.33638824338e-07,2.12623463683e-05,0.000200982365658,-1.971085378e-06,-6.10130597996e-07,-4.54827394322e-05,-2.44797683092e-06,-3.90712893246e-06,-3.20416111231e-06,-5.05402976803e-05,-2.01156395723e-05,-5.46134573387e-06,-2.25833962847e-06,-2.01138657597e-06,-8.50484874658e-07,-3.04765728016e-06,-1.33027736265e-06,-2.23590900447e-06
0.000121602048975,-9.95651794796e-06,-4.75623212988e-06,-6.46127847912e-06,-3.70965762919e-06,-8.30330384544e-07,-4.87621207666e-06,-4.38988595431e-06,-1.65841772425e-06,0.000164730058208,2.19864815731e-06,-5.6211083134e-06,-6.09650930381e-07,-2.30150289138e-06,-1.13336035466e-05,-2.42105305839e-05,-5.95720775905e-06,-2.24482942408e-05,-8.9777823705e-06,-9.68693629437e-07,-1.34734706419e-05,-1.25613373883e-05,-1.42839805173e-06,-4.58660814277e-06,-5.68599257855e-06,-1.36251571519e-05
0.000179293663811,-7.21639210422e-06,-3.55470559461e-06,-4.72369730015e-06,-2.63951620745e-06,-7.21241832243e-07,-3.71055875263e-06,-3.2688163884e-06,-1.31036041403e-06,0.000116908944912,-2.90439376516e-06,-4.12778331308e-06,-6.40050723535e-07,-1.46260297702e-06,-8.19176462068e-06,-1.7331074786e-05,-4.80626685073e-06,-2.9527181356e-05,-6.25956095645e-06,-7.93312041694e-07,-1.02910748343e-05,-9.05784850509e-06,-1.18317387508e-06,-5.23209156136e-06,-4.17246594471e-06,-9.90893837756e-06
3.51083908915e-05,-4.22632671633e-06,-1.94460192671e-06,-2.70826549575e-06,-1.47500710585e-06,-3.27575766929e-07,-1.99325494171e-06,-1.83189579799e-06,-6.81043334661e-07,6.93703302988e-05,-7.43607753645e-07,-2.33897178643e-06,-2.2616066967e-07,-4.64197545381e-07,-4.76961890642e-06,-8.21171118248e-06,-2.39398411712e-06,-6.58652235476e-06,-3.71072982066e-06,-4.84507959576e-07,-5.55269367878e-06,-5.2729654549e-06,-5.85337891907e-07,-1.58144762021e-06,-2.41861534198e-06,-5.70838924218e-06
-1.46945590325e-06,-4.35505036053e-06,-6.02574101077e-06,-2.5432175484e-06,-2.01257572518e-06,-3.48034759262e-07,-1.81232196616e-06,-1.82193156331e-06,-6.72036755196e-07,6.05452379082e-05,1.01977808858e-05,-2.44591653999e-06,-2.59344279813e-07,-3.72472506771e-07,-4.59675951006e-06,1.25997174421e-05,-2.08796037235e-06,-1.52532817448e-06,-4.62801033364e-06,-2.00719665349e-06,-5.22570281426e-06,-4.75092617404e-06,-7.12528077676e-07,-9.304488239e-07,-2.63525810383e-06,-5.10955924272e-06
-3.5893523414e-06,-6.9316284617e-06,-0.000116884367822,-3.77567294961e-06,-7.28031024788e-06,-1.18844018525e-06,-3.34155898058e-06,-2.95513154159e-06,-1.38703616669e-06,4.63364035091e-05,0.000282894591491,-1.14656533753e-05,-1.12940592891e-06,-1.34591866579e-06,-8.67559684515e-06,9.20674057173e-05,-3.74198428112e-06,-4.45640218861e-06,-1.03310005968e-05,-9.1984256816e-06,-1.80312850757e-05,-6.04352599456e-06,-2.71125954739e-06,-2.0547291641e-06,-4.78601790229e-06,-5.48556049996e-06
-4.57014998182e-06,-6.80478350006e-06,-0.000303226118517,-4.18584795991e-06,-1.25671772409e-05,-2.10966924559e-06,-4.84050529852e-06,-3.10867138788e-06,-1.89927070365e-06,1.79409240433e-06,0.000744886153105,-2.5540824269e-05,-2.00332176807e-06,-2.29534248702e-06,-1.2554542207e-05,0.000136607064034,-5.19913386121e-06,-6.16305444809e-06,-1.22503033375e-05,-1.36841150323e-05,-3.76157627349e-05,-6.08965650009e-06,-4.93662805668e-06,-2.6937707268e-06,-5.11625087418e-06,-3.62075527705e-06
-3.91878135347e-06,-5.62220211949e-06,-0.000141774084767,-2.56627297324e-06,-8.40252225468e-06,-1.31597989889e-06,-2.6129025964e-06,-2.38187643538e-06,-1.27744225721e-06,-1.88503593344e-06,0.000350151050368,-1.22948285224e-05,-1.38051572242e-06,-1.70406499227e-06,-6.97679668787e-06,0.000137922534349,-2.9145103718e-06,-6.39018859593e-06,-1.09027751547e-05,-1.24244795089e-05,-1.77169452207e-05,-3.11668897785e-06,-3.09928530432e-06,-2.05454927122e-06,-4.38949616853e-06,-2.14921432774e-06
-3.22330357124e-06,-4.52823939762e-06,-2.37629040008e-05,-1.42353271964e-06,-5.19255541151e-06,-7.49904890659e-07,-1.0361648364e-06,-1.8148178169e-06,-8.36842088611e-07,-1.33279518314e-06,9.36948948166e-05,-3.30598081261e-06,-9.14417110553e-07,-2.53762964465e-06,-2.91571793571e-06,0.000124705189575,-1.34772116328e-06,-1.7171154455e-05,-9.15664991176e-06,-1.04733634297e-05,-3.094627535e-06,-1.12707202395e-06,-1.76768338017e-06,-1.53756198459e-06,-3.6424108738e-06,-1.27903779366e-06
4.36229632542e-06,-3.09929929499e-06,-3.25650335289e-06,-8.00599222308e-07,-2.90066412284e-06,-4.26020494054e-07,-5.02432808992e-07,-1.11722832173e-06,-4.89805048582e-07,-7.80460622376e-07,3.38280657199e-05,-1.20267413236e-06,-7.35407733279e-07,-1.74830019313e-06,-1.49434991546e-06,7.39951197437e-05,-6.94713877604e-07,-1.21747177916e-05,-5.45588129901e-06,-6.17544575295e-06,-5.0402415325e-07,-5.1758717958e-07,-9.80686538514e-07,-9.0864876059e-07,-2.15615909296e-06,-7.23536636615e-07
7.88151545289e-05,-6.75872271788e-06,-8.34922621231e-07,-8.49117679715e-07,-1.52886084331e-06,-4.20294738322e-07,-4.92366758523e-07,-1.25110558668e-06,4.78475845588e-06,-1.12387154131e-06,3.83251304329e-06,-5.39001807549e-07,-2.92516322242e-06,-1.35899402342e-06,-1.83939058332e-06,2.03694497725e-05,-6.25752755477e-07,-5.74818254361e-06,-5.18772698154e-06,-2.16955455429e-06,-4.93413845485e-07,-4.43290234049e-07,-6.87628245818e-07,-6.55943047333e-07,-9.38269046842e-07,-1.52913741269e-06
0.000311062860457,-2.15388131458e-05,-1.62719679503e-06,-2.77007157785e-06,-3.1629261758e-06,-1.42456378149e-06,-1.85442289937e-06,-4.70155169734e-06,4.03472149344e-05,-6.17734650836e-06,-1.53665341743e-06,-1.5358880571e-06,-9.53229429014e-06,-6.02678406745e-06,-5.50699100338e-06,-2.03914567276e-06,-2.54013408426e-06,-1.4989685995e-05,-2.54230517628e-05,-1.95345111741e-06,-1.87888762637e-06,-1.41569636568e-06,-2.14424945836e-06,-2.12941057184e-06,-1.59307589366e-06,-9.26268664406e-06
0.000578945901316,-3.46620183275e-05,-3.43448672551e-06,-5.38278254972e-06,-5.86889924899e-06,-2.96513370684e-06,-4.00950966331e-06,-1.05233711665e-05,9.62327142877e-05,-1.42082447049e-05,-3.17348866843e-06,-3.23353680744e-06,-1.47999089367e-05,-1.48801110353e-05,-9.58175924113e-06,-6.84184202225e-06,-5.62252727749e-06,-2.65757794131e-05,-5.89323367629e-05,-3.65810618437e-06,-4.05697239934e-06,-2.95199203111e-06,-4.74383084229e-06,-4.61208391195e-06,-3.25311168801e-06,-2.13338854746e-05
0.00063674765355,-3.95525509826e-05,-4.03457134802e-06,-6.29635538946e-06,-6.78182352547e-06,-3.34213519536e-06,-4.86795210271e-06,-1.17443010652e-05,0.000142834224527,-1.98574948057e-05,-3.58471128594e-06,-3.74158017029e-06,-1.61818152411e-05,-1.66235404503e-05,-1.06683616085e-05,-7.56402263397e-06,-7.23529067014e-06,-3.02490285878e-05,-8.27003972455e-05,-4.21241470141e-06,-4.9157429398e-06,-3.3306900467e-06,-5.32627627887e-06,-5.63557446203e-06,-3.76340979646e-06,-3.02482756544e-05
0.00031987303312,-2.82279734119e-05,-2.81982192187e-06,-4.51389643615e-06,-4.64207429227e-06,-1.82913871008e-06,-3.95751706697e-06,-5.63801137388e-06,0.000206970019666,-2.52699967862e-05,-2.00382738653e-06,-2.4085410854e-06,-9.24634564387e-06,-7.47764253559e-06,-6.18217192831e-06,-4.25334641423e-06,-7.3128357903e-06,-1.9838885244e-05,-0.000106059879319,-2.69872110762e-06,-3.96401635032e-06,-1.83116382626e-06,-2.69891831899e-06,-4.70040980388e-06,-2.42304404165e-06,-3.98640943102e-05
2.81250723214e-05,-1.45444908162e-05,-1.80513414456e-06,-2.83909745648e-06,-2.58357852723e-06,-5.65305249096e-07,-3.20756392149e-06,-8.48374843786e-07,0.000260415703027,-2.97766768872e-05,-6.71786462741e-07,-1.29682333583e-06,-1.45118871027e-06,-7.80231877232e-07,-1.69438891385e-06,-8.97746869206e-07,-7.38500025728e-06,-9.2113802509e-06,-0.000125686941364,-1.38175910859e-06,-3.17806085378e-06,-5.82404324724e-07,-6.26947380109e-07,-3.93713449555e-06,-1.30216786366e-06,-4.78150083861e-05
-3.69586938717e-07,-4.45556381169e-06,-6.10364643889e-07,-9.44328288019e-07,-8.36636943167e-07,-1.63948775631e-07,-1.11559285834e-06,-1.85268942777e-07,9.3788528846e-05,-1.06779389822e-05,-1.98885145624e-07,-4.27616553828e-07,-1.45984881812e-07,-1.51716722981e-07,-4.18005552413e-07,-1.79126809593e-07,-2.61900139541e-06,-2.81893109836e-06,-4.51014444646e-05,-4.47897262275e-07,-1.10399670461e-06,-1.70715104237e-07,-1.71387916243e-07,-1.37421372046e-06,-4.29028106952e-07,-1.71628459497e-05
-2.05326077065e-08,-2.47531322872e-07,-3.39091468827e-08,-5.24626826677e-08,-4.6479830176e-08,-9.10826531285e-09,-6.1977381019e-08,-1.02927190432e-08,5.21047382478e-06,-5.93218832347e-07,-1.10491747569e-08,-2.37564752127e-08,-8.11027121177e-09,-8.42870683228e-09,-2.32225306896e-08,-9.95148942181e-09,-1.45500077523e-07,-1.56607283242e-07,-2.50563580359e-06,-2.48831812375e-08,-6.13331502562e-08,-9.48417245758e-09,-9.52155090238e-09,-7.63452066921e-08,-2.38348948307e-08,-9.53491441651e-07
0.0,0.0,0.0,0.0,0.0,0.0,0.0,0.0,0.0,0.0,0.0,0.0,0.0,0.0,0.0,0.0,0.0,0.0,0.0,0.0,0.0,0.0,0.0,0.0,0.0,0.0
0.0,0.0,0.0,0.0,0.0,0.0,0.0,0.0,0.0,0.0,0.0,0.0,0.0,0.0,0.0,0.0,0.0,0.0,0.0,0.0,0.0,0.0,0.0,0.0,0.0,0.0
-6.32415455612e-08,-1.97813785188e-07,-1.42948561468e-06,-3.97952064903e-07,-6.46324291758e-08,-6.15717861939e-08,-7.37764189032e-08,-6.1649343966e-08,-6.15724479841e-08,-7.52954057595e-08,-6.15961372146e-08,-6.59887090028e-08,-6.24627450969e-08,-6.17110424957e-08,-3.90999758837e-05,-6.16063681613e-08,-1.05164131951e-07,-6.51127490776e-08,-7.07368770373e-08,-6.15735634208e-08,4.16758899188e-05,-6.1735725786e-08,-6.32550867247e-08,-6.15702522651e-08,-6.15699362444e-08,-6.78433497455e-08
-1.84487011145e-06,-2.13042847763e-06,-4.28587691052e-05,-3.89290701449e-06,-4.29222609564e-06,-1.08821792876e-06,-1.53205810591e-06,-8.92871834904e-07,-8.5675869447e-07,-9.44304481712e-07,0.000108997884885,-1.34360179209e-05,-8.03060783207e-07,-1.76158903276e-06,-0.000338406729895,-8.33260524343e-07,-1.84022047181e-06,-1.69739487521e-05,-9.12696499789e-07,-1.37093161551e-06,0.000355961889132,-1.21125937979e-06,-2.28106199063e-05,-1.1125552807e-06,-7.20871300233e-07,-2.35234002467e-06
-1.17360764462e-05,-6.17733935071e-06,-0.00029634782564,-8.99507061907e-06,-3.14438630951e-05,-5.64984437099e-06,-8.86370742198e-06,-4.44943468748e-06,-3.78693739633e-06,-3.73191785353e-06,0.00124338551306,-0.0001074261392,-3.42798940511e-06,-1.13986798549e-05,-0.000428637565224,-3.70416835662e-06,-9.52244104291e-06,-0.000132573375852,-3.86920057544e-06,-8.52482438222e-06,0.000402701311138,-8.11063495406e-06,-0.00017663548274,-6.11570962529e-06,-2.74463098813e-06,-1.54530959838e-05
-8.43815143236e-06,-7.49607563636e-06,-0.0005155756393,-9.15412772375e-06,-9.73628079929e-05,-6.16451235679e-06,-1.04780485077e-05,-6.90456031101e-06,-4.91326276443e-06,-5.12651604738e-06,0.00266444105357,-0.000244608310556,-5.44808310343e-06,-8.68222607349e-05,-8.50379393114e-05,-5.38611731042e-06,-1.1498037909e-05,-0.000181199682225,-6.3827296556e-06,-9.77166432699e-06,-2.34261679549e-05,-1.67883688391e-05,-0.000138606929734,-7.23409693653e-06,-4.66301508396e-06,-1.29465770173e-05
-8.33069994619e-06,-9.9910784822e-06,-0.000394392553015,-9.09946161768e-06,-0.000230168913001,-7.27763383706e-06,-9.53807056348e-06,-9.24844701018e-06,-6.19874001778e-06,-6.38898695196e-06,0.00318279436797,-0.000536791981266,-7.34291892616e-06,-0.000241363852173,-2.32526770297e-05,-6.68022460708e-06,-1.20051356585e-05,-0.000441466728831,-7.36267077858e-06,-1.00458285845e-05,-6.9741504172e-05,-2.03350440263e-05,-0.000239856068967,-9.27906189318e-06,-6.20744421089e-06,-1.61180230986e-05
-5.26185630761e-06,-5.97234562961e-06,-0.000126833510264,-6.76458406099e-06,-0.000134004559159,-4.16953255011e-06,-5.27920104418e-06,-5.15323525989e-06,-4.52841000586e-06,-4.13815040777e-06,0.00175050477249,-0.00026173086471,-4.02138373947e-06,-0.000125321241751,-9.17133047691e-06,-1.00584315512e-05,-7.52738389065e-06,-0.000359336528506,-1.5656047205e-05,-1.10901730134e-06,-1.70279152132e-05,-8.8718819039e-06,-0.000127484660132,-5.77761342235e-06,-4.13892238951e-06,-9.3879423117e-06
-8.67932574248e-06,-6.97911315644e-06,-3.62604706228e-05,-1.98335720284e-05,-6.2283127938e-05,-3.53067803794e-06,-9.66300134186e-06,-5.12350659369e-06,-9.23582644477e-06,-6.32459823111e-06,0.000908613295592,-3.05062455118e-05,-2.72352447298e-06,-0.00014887787774,-9.85672890749e-06,-4.58674119439e-05,-1.26227555327e-05,-0.000223802375102,-8.14744353771e-05,2.38308088168e-05,-2.79623739712e-06,-2.46058173115e-06,-1.6908017684e-05,-9.54311588617e-06,-6.54076488187e-06,-9.81622593222e-06
-2.05946917163e-06,-8.28022726212e-06,-2.30032644827e-05,-2.21381605968e-05,-7.22597269962e-05,-4.31073621285e-06,-1.37620959235e-05,-7.24832831417e-06,-1.02035850409e-05,-2.65158819102e-06,0.00100074553705,-7.5875666496e-06,-3.2405241085e-06,-0.000226787592626,-1.15280080947e-05,-5.11459470979e-05,-1.67519617508e-05,-0.000245263744889,-0.000118998065988,1.80347547591e-05,-4.71705145e-06,-2.49715045437e-06,-4.3178608338e-06,-1.39392752456e-05,-7.64886442352e-06,-1.06288013745e-05
0.000249327900836,-1.73749412694e-05,-1.96381315889e-05,-2.31731534445e-05,-4.67672403853e-05,-3.71488926502e-06,-1.42199263745e-05,-9.99851018827e-06,-8.4315756254e-06,0.000199320131941,0.000575681924884,-1.2271048462e-05,-2.8614767962e-06,-0.000136529318434,-2.25170746701e-05,-5.60927465195e-05,-1.75412540172e-05,-0.00017347673709,-8.05820424078e-05,1.11810192073e-05,-3.06585193366e-05,-1.6961494365e-05,-4.52075730891e-06,-1.78084490658e-05,-1.2187342094e-05,-2.38590503301e-05
0.000801405326243,-4.2532558016e-05,-2.17947341168e-05,-3.74321548713e-05,-2.00932579622e-05,-4.21318563705e-06,-2.18570305497e-05,-1.94279072187e-05,-7.97824537986e-06,0.000679580042489,8.88219135614e-05,-2.75925718366e-05,-3.50587444823e-06,-2.39075860125e-05,-5.72563298918e-05,-7.19202182388e-05,-2.74989212467e-05,-0.00014500338436,-4.46085554736e-05,-3.60124660898e-06,-6.57024933066e-05,-5.25770360432e-05,-6.95596572568e-06,-4.45177255935e-05,-2.82046333183e-05,-6.04527603735e-05
0.000807204386714,-4.01028682183e-05,-1.94843371152e-05,-3.22763974529e-05,-1.51688740633e-05,-3.85867511295e-06,-2.02093157087e-05,-1.80462139904e-05,-7.18859441234e-06,0.000645160690816,6.29227844419e-05,-2.83328253161e-05,-3.34713440466e-06,-7.71723951006e-06,-5.12587935797e-05,-7.48002184114e-05,-2.57419677334e-05,-0.000137270139767,-3.64824663875e-05,-4.41296691679e-06,-5.68622268102e-05,-4.99081920755e-05,-6.60858527492e-06,-5.98945607253e-05,-2.99639744393e-05,-5.92866674547e-05
0.000503226428992,-3.44873501751e-05,-1.62538923015e-05,-2.22581679572e-05,-1.24831755779e-05,-2.99350791665e-06,-1.67723873782e-05,-1.52052818078e-05,-5.84535334526e-06,0.000558929642302,1.15929004213e-06,-1.99762057348e-05,-2.36086254649e-06,-5.08172821139e-06,-3.88430966128e-05,-6.67172900067e-05,-2.08018991355e-05,-8.74987732766e-05,-3.06181193321e-05,-4.39588217038e-06,-4.65437353487e-05,-4.28623451322e-05,-5.19462841143e-06,-2.2181638188e-05,-2.07903935748e-05,-4.72413662214e-05
8.0871294671e-05,-4.37251912947e-05,-7.98152901322e-05,-2.29873247076e-05,-1.83137675094e-05,-3.31496478046e-06,-1.68852590692e-05,-1.85303829051e-05,1.99775861422e-05,0.000533248975717,0.000153590667938,-2.39648527378e-05,-2.58981389243e-06,-4.6983852112e-06,-4.18415086233e-05,8.38418291881e-05,-2.01146036585e-05,-3.24202983349e-05,-5.27404822612e-05,-1.61841891164e-05,-5.04385703878e-05,-4.25744829684e-05,-6.5768378155e-06,-1.02778996359e-05,-2.30011216823e-05,-5.02592240855e-05
3.80912085562e-05,-7.16690673566e-05,-0.000360155959363,-2.73410564597e-05,-3.37852689462e-05,-5.67894956942e-06,-2.16961693441e-05,-3.10206599904e-05,7.53208385998e-05,0.000497492790522,0.000840868386191,-4.72910989745e-05,-5.26231908434e-06,-1.04396329658e-05,-5.50103406164e-05,0.000281931225227,-2.64064433965e-05,-5.3454018403e-05,-9.82068043589e-05,-3.51669954154e-05,-8.39692607842e-05,-4.65567637759e-05,-1.18515406607e-05,-1.26730240304e-05,-2.98508194046e-05,-6.25006434984e-05
7.77122971135e-05,-9.9699923831e-05,-0.000462919876426,-2.74535475467e-05,-4.22936234221e-05,-6.64680952663e-06,-2.16443446676e-05,-4.17176778116e-05,0.00012194060926,0.00038161146478,0.00112087736679,-5.38371910711e-05,-7.31258986997e-06,-1.66151431045e-05,-5.89291862347e-05,0.000353813975395,-2.77873737893e-05,-9.70424863141e-05,-0.00012582200524,-4.33011000388e-05,-8.98654448789e-05,-4.10630690395e-05,-1.34683224083e-05,-1.42066480416e-05,-3.60912829857e-05,-6.56637200134e-05
9.00009513376e-05,-0.000113356615273,-0.000272688995592,-2.7154640463e-05,-4.28821009838e-05,-6.48700106979e-06,-1.98106814008e-05,-4.50783079105e-05,0.00018986769188,0.000343122407941,0.000868880562169,-4.25262098669e-05,-7.9324020794e-06,-2.66309402884e-05,-5.519790029e-05,0.000378138998242,-2.77741087197e-05,-0.000185892734771,-0.000159751862165,-4.58066056448e-05,-6.4001418286e-05,-3.63158448355e-05,-1.25532483666e-05,-1.54594259106e-05,-4.07262482389e-05,-7.61827466328e-05
8.90025724375e-05,-8.83469030992e-05,-8.19082937443e-05,-2.34007453036e-05,-3.20478040344e-05,-5.41940531102e-06,-1.78226860065e-05,-3.4715394362e-05,0.000284764064333,0.000334577258577,0.000591369086715,-3.04938386689e-05,-6.41704815555e-06,-3.02925386654e-05,-4.11006244662e-05,0.00032250973048,-2.65590496986e-05,-0.000223263180842,-0.000194634558699,-3.72563562011e-05,-3.96417950109e-05,-3.27181515522e-05,-1.05254880011e-05,-1.47616048986e-05,-2.87804534659e-05,-8.92897530101e-05
0.000287999658419,-7.08923620008e-05,-3.77413338698e-05,-2.36442932828e-05,-2.62748245588e-05,-5.1306979741e-06,-1.8110228051e-05,-2.06615547473e-05,0.00038420458811,0.000324148020447,0.000273077324759,-2.31009226963e-05,-1.03941993423e-05,-1.90559380751e-05,-3.79506526424e-05,0.000259050861281,-2.7074936478e-05,-0.00012084813727,-0.000234374103695,-3.12307174969e-05,-3.67732818796e-05,-3.21107296756e-05,-9.647546475e-06,-1.61749571099e-05,-2.4862830045e-05,-0.000106181580434
0.000742734867698,-8.34454522978e-05,-2.07293962125e-05,-2.6089041787e-05,-2.40400879877e-05,-6.00245391024e-06,-1.99044114062e-05,-2.16854191878e-05,0.000487792343604,0.00031195999173,3.6620992138e-05,-1.92259239508e-05,-1.78783259563e-05,-1.91520244027e-05,-4.1419261563e-05,0.000150569402487,-2.99151602182e-05,-6.23032393753e-05,-0.000281317682902,-2.42687577236e-05,-3.8597151626e-05,-3.28758370225e-05,-1.03703510913e-05,-1.93313628778e-05,-2.34469937322e-05,-0.000125712495573
0.000992624855669,-9.16154588534e-05,-1.81698834073e-05,-2.7444558525e-05,-2.14868180298e-05,-6.71476836725e-06,-2.14002783286e-05,-2.49583647624e-05,0.000575949726254,0.000301933284214,-7.00320201822e-06,-1.91747408182e-05,-2.15591942385e-05,-2.44217075317e-05,-4.2538760128e-05,3.69623075195e-06,-3.2517383318e-05,-5.70085411667e-05,-0.000319013775182,-1.41993462415e-05,-4.01810797778e-05,-3.34100303534e-05,-1.11072490071e-05,-2.07015016346e-05,-2.10461483051e-05,-0.000142052957066
0.000920790166618,-9.57467817198e-05,-1.83636270958e-05,-2.76969569851e-05,-2.04151236299e-05,-6.67493417783e-06,-2.22059312176e-05,-2.52445206666e-05,0.000664783992479,0.000292361289997,-6.99840201246e-06,-1.93352935971e-05,-2.22117281193e-05,-2.34494529166e-05,-4.14919896906e-05,-5.91818613028e-05,-3.45594125873e-05,-5.84046674771e-05,-0.000358551863915,-9.63967065494e-06,-4.07675439375e-05,-3.32888391571e-05,-1.08209927626e-05,-2.03796547109e-05,-1.97651425334e-05,-0.000157838497384
0.000791610271044,-9.99796568471e-05,-1.85729298882e-05,-2.78267626095e-05,-2.0697730648e-05,-6.480627883e-06,-2.28948252852e-05,-2.44462398904e-05,0.000753717514642,0.000282715551071,-6.82838900336e-06,-1.93844081188e-05,-2.23094345457e-05,-2.16802235438e-05,-4.10933623192e-05,-6.49284332883e-05,-3.65813821284e-05,-6.0174504992e-05,-0.000399665029018,-9.26453984757e-06,-4.11415548309e-05,-3.30837198964e-05,-1.01326791544e-05,-1.97859927823e-05,-1.96433152595e-05,-0.000173646088188
0.000558965173385,-9.92367455102e-05,-1.78958145545e-05,-2.70675204786e-05,-1.97863848662e-05,-5.33268067077e-06,-2.27088761526e-05,-1.92067790263e-05,0.000854033237938,0.000272840932462,-5.6602184793e-06,-1.85149592923e-05,-1.96666154722e-05,-1.30697101385e-05,-3.87050269345e-05,-6.31885047444e-05,-3.79598690611e-05,-5.60491598042e-05,-0.000441608415167,-8.33861391088e-06,-4.08662602992e-05,-3.19430660867e-05,-7.87017119573e-06,-1.94484313292e-05,-1.87660869002e-05,-0.000190356171928
0.000142794489773,-7.56626797106e-05,-1.62603855736e-05,-2.42579351284e-05,-1.64380195906e-05,-3.54645641997e-06,-2.12284293814e-05,-1.28496301605e-05,0.000887115181971,0.000271218830909,-3.75816200213e-06,-1.68258556078e-05,-7.54063715734e-06,-4.59882536161e-06,-3.1886638666e-05,-5.81195082834e-05,-3.69618844113e-05,-3.90020556796e-05,-0.00044939311865,-6.32212275909e-06,-3.93406598333e-05,-3.01772900198e-05,-5.07300933418e-06,-1.78465102214e-05,-1.70617100783e-05,-0.000193881670003
-7.37405863549e-06,-4.33010606844e-05,-1.26440393882e-05,-1.84481188821e-05,-1.10606698333e-05,-2.18453348208e-06,-1.52835050388e-05,-1.00376974457e-05,0.000455285976851,0.0003123789422,-2.1898822445e-06,-1.40021052509e-05,-1.39872561048e-06,-1.9984529784e-06,-2.65940512467e-05,-5.39434053874e-05,-2.40442017299e-05,-1.86858666661e-05,-0.0002388751724,-3.50794641409e-06,-3.30116357385e-05,-2.81749791655e-05,-3.43422484201e-06,-1.07879064119e-05,-1.42190276025e-05,-0.000113309550486
-4.50859182957e-06,-1.961280569e-05,-7.80084516661e-06,-1.12202265374e-05,-5.91505286111e-06,-1.17212640872e-06,-8.29484538879e-06,-7.09147252466e-06,6.52708494522e-05,0.000270065069043,-1.07130012204e-06,-9.38428974515e-06,-6.27354854393e-07,-1.06707930475e-06,-1.90070117911e-05,-4.05618831288e-05,-1.04554590328e-05,-5.77260000845e-06,-4.65764819683e-05,-1.32784437719e-06,-2.18368117274e-05,-2.09540538528e-05,-2.10193510466e-06,-4.09308061883e-06,-9.54532552415e-06,-3.47971438813e-05
-4.63932429776e-07,-1.79319202264e-06,-8.05002871874e-07,-1.15261690061e-06,-5.80870398152e-07,-1.15250511213e-07,-8.19124625763e-07,-7.60994847495e-07,-2.69643310778e-07,3.03818499539e-05,-1.01462905491e-07,-9.92627952683e-07,-5.708514532e-08,-1.0472723143e-07,-2.04587237883e-06,-4.42230619319e-06,-9.36682908989e-07,-4.08702145064e-07,-1.53160180706e-06,-1.09852205433e-07,-2.30119320966e-06,-2.27836433244e-06,-2.16360696883e-07,-3.39127351919e-07,-1.01012973812e-06,-2.45019196841e-06
0.0,0.0,0.0,0.0,0.0,0.0,0.0,0.0,0.0,0.0,0.0,0.0,0.0,0.0,0.0,0.0,0.0,0.0,0.0,0.0,0.0,0.0,0.0,0.0,0.0,0.0
-5.84984296442e-07,-1.82977751298e-06,-1.32227419358e-05,-3.68105660035e-06,-5.97849969877e-07,-5.69539022294e-07,-6.82431874854e-07,-5.70256431686e-07,-5.69545143853e-07,-6.96482503276e-07,-5.69764269235e-07,-6.10395558276e-07,-5.77780392147e-07,-5.70827143085e-07,-0.000361674776925,-5.69858905492e-07,-9.72768220546e-07,-6.02292928968e-07,-6.54316112595e-07,-5.69555461642e-07,0.000385501981749,-5.7105546352e-07,-5.85109552204e-07,-5.69524833452e-07,-5.69521910261e-07,-6.27550985146e-07
-1.25775330674e-05,-8.24579630979e-06,-0.000143140499789,-1.35542088169e-05,-3.04551153401e-05,-5.80338608804e-06,-7.75830388358e-06,-4.24323195087e-06,-3.9651354365e-06,-3.99359869834e-06,0.000555584940954,-0.000101590390031,-3.41713424957e-06,-1.18139444869e-05,-0.00108501909589,-3.65413413553e-06,-8.90803757911e-06,-0.000145542381265,-3.45756649148e-06,-7.81287616008e-06,0.00114055411715,-4.96890026656e-06,-0.000195820197883,-6.20817581642e-06,-2.77034343591e-06,-1.62727734065e-05
-3.07520320127e-05,-1.49365412542e-05,-0.000528782030812,-2.11947217179e-05,-8.75133398176e-05,-1.3850317449e-05,-2.00851196908e-05,-9.96304436875e-06,-8.93164713346e-06,-8.57883727947e-06,0.00228328687706,-0.000286181407102,-7.65224844589e-06,-3.5448472901e-05,-0.00119938628236,-8.33370848559e-06,-2.20885722536e-05,-0.000413919203224,-8.04943806877e-06,-1.99297072987e-05,0.00119745807389,-1.50289889995e-05,-0.000500067017471,-1.48303860257e-05,-5.94002851083e-06,-4.07225907579e-05
-0.0345154469875,-0.0189889227541,-0.0824770396019,0.00176267456039,-0.0289838499086,0.0192177708402,-0.0319889512373,0.00837228788979,0.00572908216396,-0.0302421559658,0.0168938042933,-0.0115488903496,-0.0384022667209,-0.0778500295512,-0.0603708879808,-0.0426282557649,-0.040296715595,-0.0574612993689,-0.0889386996206,0.0267014900841,-0.121247114919,0.0910215611413,-0.0177414813148,0.00967679332096,0.00903601189067,0.00660205198121
-0.0723819129601,-0.0271853502893,-0.162559835711,0.0355687155812,-0.0513577596613,0.0270162644003,-0.0609590029544,0.0296919317172,0.0124982639444,-0.0364674853315,0.0652870379224,-0.0171028914157,-0.0677037257405,-0.0884464314099,-0.145152890099,-0.0787645426921,-0.079413961302,-0.107517500093,-0.161452730783,0.0588944958693,-0.124039998367,0.114354009706,-0.0576859060708,0.0321193112226,0.0241409717458,0.028657586845
-0.108034392466,-0.0200471302861,-0.197599504526,0.0926790064993,-0.0653572304508,0.0396778252747,-0.0774367721919,0.0370892064675,0.0280922466872,-0.0194872688601,0.0688838012018,-0.0194222629505,-0.0655770750011,-0.0537276968629,-0.219312698248,-0.100444255473,-0.103583500858,-0.115308897399,-0.200783939509,0.0958916471975,-0.0675784591452,0.0451427915629,-0.057659722352,0.0596491617801,0.0270952536908,0.0563504525428
-0.129216096048,-0.0136106268676,-0.200534961344,0.167342943579,-0.0911470824781,0.0565951763531,-0.0925931328417,0.00901375450151,0.0352558951227,-0.00727978098496,0.0376133442126,-0.0264918969401,-0.0506264576143,-0.048048082922,-0.251579064513,-0.101423474855,-0.126922037393,-0.106969661852,-0.224973191201,0.112829660676,-0.0616971517034,-0.0360519773024,-0.0329682850131,0.0656408656828,0.0419010244033,0.0664374287439
-0.119779419543,0.01473525992,-0.187589122462,0.214380146509,-0.0927855500058,0.0643028609156,-0.102074709491,-0.0121053001928,0.0459144459405,0.00763117425977,0.0270627313361,-0.0478171690179,-0.038672489376,-0.059369883036,-0.21745574588,-0.0636409228474,-0.124015951963,-0.0814675173981,-0.219127288364,0.0951078781918,-0.0485853427039,-0.0595816729558,-0.0253602816414,0.0369405704294,0.0534780341794,0.081450224213
-0.0853926501907,0.0503845470731,-0.158618828466,0.203139319385,-0.0698310549666,0.0632946209577,-0.0949814239338,-0.05423364056,0.054995667789,-0.00080927855835,0.0200521475691,-0.0488956109516,-0.0322393570116,-0.0872085427353,-0.161524067898,0.00902593810503,-0.0814898148931,-0.0298912537195,-0.170205502956,0.0647792770271,-0.0373760911058,-0.0685194040841,-0.0391731955599,-0.0012790453903,0.0401274186721,0.0815683278201
-0.0298085126544,0.079722945769,-0.118679675939,0.16303025551,-0.0514455389145,0.0537583462287,-0.0621261585928,-0.0736907741002,0.057223890523,-0.0102395021795,0.00539825843904,-0.0628345931463,-0.0414572124411,-0.125588249356,-0.0567016403059,0.106548120156,-0.0324402454333,0.0233422801394,-0.106673104113,0.0255540944852,-0.0465048302069,-0.0759801248526,-0.0585841942467,-0.0326535930891,0.00813026752279,0.0614975991167
0.0242383592162,0.0972971779628,-0.07001771535,0.136638216241,-0.0736319056346,0.0452820866944,-0.0158917607235,-0.100891582782,0.0629730116316,-0.0188315595923,-0.0365124379953,-0.0858278291728,-0.0526526914319,-0.131873244484,0.0514766744893,0.193998340158,0.0377429495261,0.0990375828385,-0.0320588434445,0.00502108675755,-0.0678012532819,-0.0861887232552,-0.0845819512538,-0.0595751525694,-0.0509826760211,0.0354402951343
0.032878818958,0.0796791798542,-0.0337136315625,0.104590363109,-0.107675509537,0.0355292643269,0.0231030416032,-0.148233765728,0.061751396622,-0.0348943199816,-0.0860450719625,-0.107179666217,-0.0952712385687,-0.144047668629,0.119199149204,0.272049678373,0.107854982018,0.131643623295,0.00365616886942,-0.0191152815009,-0.0818039857464,-0.101793177133,-0.123282763325,-0.12055052233,-0.122032183706,0.0208984315509
0.0424240849051,0.0504024907015,-0.029535899428,0.0437485903755,-0.116134100997,0.0244241871866,0.0491308581792,-0.195361326476,0.0492070786681,-0.0680892165376,-0.158882718892,-0.117615826583,-0.127609121724,-0.167339093307,0.1652443554,0.326864239706,0.154225147373,0.132726512573,0.0327061968556,-0.0394141545496,-0.151716168707,-0.120298417624,-0.147598501847,-0.178775415666,-0.207739337271,-0.00834970442224
0.0468348977451,0.0108752274448,0.00709208493175,-0.00186241263953,-0.127294783936,0.0215194287042,0.0637833264042,-0.225049197128,0.0442362883333,-0.0824704552676,-0.19757759418,-0.136862544477,-0.150248983581,-0.191962765705,0.149985790814,0.33719805437,0.182059270404,0.0749269823086,0.0429344191042,-0.0552623203156,-0.257158688241,-0.134512907164,-0.168476939796,-0.209243048442,-0.275773623082,-0.0366280823728
0.0042921365268,-0.0228211366682,0.0300290624553,-0.0523434984207,-0.125644422319,0.0247210434234,0.0533172761589,-0.232505301919,0.0437811461528,-0.077489868434,-0.199220053047,-0.17165761871,-0.166932031561,-0.192127599684,0.0968819020199,0.321924944229,0.1848394804,0.0582227075005,0.0787983970212,-0.0459196752672,-0.320641960354,-0.145781840054,-0.171659364702,-0.206580444303,-0.321359198943,-0.0439482629988
-0.0358962932598,-0.0502794384671,0.0514486150453,-0.0993891419466,-0.0855499396584,0.0414208379009,0.056082094876,-0.181708957809,0.0482828945515,-0.0712456170689,-0.178602112415,-0.190903668322,-0.169076830416,-0.179137480942,0.0455952303653,0.282258743691,0.162516047241,0.0477745792811,0.101291649467,-0.0708559859709,-0.295072744921,-0.150265015689,-0.18307602846,-0.182690330478,-0.269684803915,-0.0536144174302
-0.0731623506193,-0.0590025617268,0.0710108073135,-0.149499105665,-0.0523564481746,0.0652160549553,0.0504928451548,-0.13201751455,0.0593382871319,-0.093847430924,-0.162752892876,-0.190082906043,-0.159297543673,-0.134568037009,-0.00656459401773,0.2123584424,0.12683320785,0.0379232351351,0.0873939667354,-0.101333114913,-0.174883507741,-0.147922904084,-0.181373050237,-0.134215985171,-0.0925090189735,-0.0661991408183
-0.108318096845,-0.0751988776723,0.0734259755515,-0.226076140784,-0.0254497531298,0.0899440370646,0.0141181177186,-0.0805217685143,0.075730779825,-0.0860635906736,-0.152214740805,-0.194533108394,-0.155822839748,-0.0240459786363,-0.0469502540149,0.125036522047,0.0987778963695,0.0355981363233,0.050379297972,-0.081981138682,-0.0763444668669,-0.132016338832,-0.160801843381,-0.0964139343721,0.0442157136529,-0.0915383752644
-0.0831280217598,-0.0867318348555,0.0574384602441,-0.281533338235,0.0112178903083,0.124105150848,-0.0267377895124,-0.0464685538163,0.100105130705,-0.0201702619131,-0.116970317255,-0.18595980395,-0.145690201264,0.0472084417182,-0.102340789023,0.0183629478677,0.0197667305384,0.00850591140873,0.0266109747438,-0.0152046922619,-0.0520226136345,-0.0904156517261,-0.106365252657,-0.0709498519263,0.0650596475603,-0.116020813634
-0.0460298944864,-0.118682559841,0.0206614944464,-0.29275370671,0.046537037107,0.157763593303,-0.0745703609605,-0.0227292625465,0.117289901172,0.0422577199042,-0.0823201147996,-0.169680780195,-0.115914877795,0.0116663850811,-0.120186891765,-0.0942478055772,-0.0820174240355,-0.0254546887231,0.0342389084792,0.0684102840066,-0.0510204853755,0.0460256122325,-0.0310307948395,-0.0288172605289,0.0676389065489,-0.140915559647
-0.0428587320228,-0.152409099207,-0.0381127077362,-0.266986171455,0.0101716808104,0.191012510181,-0.0901742219707,0.0133806863318,0.130700791462,0.0943436106579,-0.0658357424085,-0.137752870826,-0.107026421667,-0.0126312531518,-0.133109641815,-0.179289021939,-0.132159602513,-0.098045825048,-0.00854560617815,0.100198550924,-0.175001901265,0.306386437256,-0.027491635707,0.0228758825811,0.0531597842541,-0.146281970686
-0.0997787293719,-0.178299811936,-0.102508812447,-0.217596991104,-0.0515266828454,0.201908975896,-0.0925823127069,0.0491423631228,0.132949825285,0.120543026564,-0.0161167956194,-0.115190492387,-0.0988766156273,-0.0506524320939,-0.155520969214,-0.239816398155,-0.139350699168,-0.183877835142,-0.0892901562003,0.0709135361841,-0.321682068698,0.445935289574,-0.0248143968526,0.0358457293806,0.0759816783422,-0.141842659708
-0.0947052639013,-0.117567203712,-0.0890056136617,-0.112673891259,-0.0948831355608,0.171137643268,-0.0636494355165,0.0206844457683,0.0965159717107,0.0721938338228,0.00389389589411,-0.0678196439135,-0.0616318349168,-0.0347090846881,-0.0998507769778,-0.181790331068,-0.0821368780238,-0.156760435626,-0.0888096311679,0.0268069811932,-0.278316681372,0.298674959037,-0.0189476101979,0.014325183265,0.043176090493,-0.0858552534409
0.000228680569891,-0.00011869668952,-3.21869585585e-05,-4.72806568047e-05,-2.86901946791e-05,-6.17001456151e-06,-3.76450008287e-05,-2.84971156471e-05,0.000923320946762,0.000843348124082,-6.16590091513e-06,-3.62339094978e-05,-1.20594335066e-05,-7.86513595716e-06,-7.2671366846e-05,-0.000143518069817,-5.62844813784e-05,-5.24933273146e-05,-0.000499874965327,-9.0586195099e-06,-8.39202265108e-05,-7.38975713753e-05,-9.75954352997e-06,-2.52950425422e-05,-3.68075019672e-05,-0.000248522586112
-1.60814335244e-05,-7.66204761798e-05,-2.77562752497e-05,-4.00782550711e-05,-2.19212662524e-05,-4.33961230575e-06,-3.06059003626e-05,-2.43673005604e-05,0.00043978032677,0.000886480264709,-4.08108439852e-06,-3.26727194082e-05,-2.45896780837e-06,-3.95645192884e-06,-6.51269139004e-05,-0.000137315562052,-4.14163650015e-05,-2.60796068351e-05,-0.000262745534869,-5.52967878263e-06,-7.62828985344e-05,-7.1119452518e-05,-7.49512631e-06,-1.70301889205e-05,-3.32195185887e-05,-0.000157606187579
-1.26400147736e-05,-5.08742199078e-05,-2.19119864827e-05,-3.1420889394e-05,-1.60752957413e-05,-3.188134269e-06,-2.26260578605e-05,-2.04529464116e-05,5.53223574523e-05,0.000804510794208,-2.84309914376e-06,-2.68024244385e-05,-1.62231213666e-06,-2.89885766447e-06,-5.49326896313e-05,-0.000118258169034,-2.67688157847e-05,-1.27974732742e-05,-7.09832779174e-05,-3.23322137712e-06,-6.22107306897e-05,-6.09786858075e-05,-5.89418008471e-06,-9.975687453e-06,-2.72709131705e-05,-7.68970255989e-05
-3.77773549961e-06,-1.46017064701e-05,-6.55502338526e-06,-9.38559476212e-06,-4.72994467067e-06,-9.38468448445e-07,-6.67001480978e-06,-6.1966723296e-06,-2.19566695919e-06,0.00024739506391,-8.2619794471e-07,-8.08282761471e-06,-4.6483618332e-07,-8.527788845e-07,-1.66592465133e-05,-3.60102075732e-05,-7.62727511605e-06,-3.32800318124e-06,-1.24716147146e-05,-8.94510815665e-07,-1.87382875644e-05,-1.85523952784e-05,-1.76179424605e-06,-2.76146557991e-06,-8.22534215323e-06,-1.99515631714e-05
0.0,0.0,0.0,0.0,0.0,0.0,0.0,0.0,0.0,0.0,0.0,0.0,0.0,0.0,0.0,0.0,0.0,0.0,0.0,0.0,0.0,0.0,0.0,0.0,0.0,0.0
-9.72338763004e-07,-3.04138694726e-06,-2.19783413257e-05,-6.11851299788e-06,-9.93723598579e-07,-9.46666212731e-07,-1.13431244064e-06,-9.47858663477e-07,-9.46676387756e-07,-1.15766686355e-06,-9.47040609675e-07,-1.01457640092e-06,-9.60364705865e-07,-9.48807278371e-07,-0.000601162129212,-9.47197910481e-07,-1.61689852875e-06,-1.00110851707e-06,-1.08757948445e-06,-9.46693537595e-07,0.000640766807502,-9.4918678396e-07,-9.72546958393e-07,-9.46642628576e-07,-9.46637769758e-07,-1.04309150234e-06
-1.60171337824e-05,-1.22402578417e-05,-0.000153891675422,-1.61080157845e-05,-3.83529567874e-05,-7.15181453791e-06,-9.9655931123e-06,-5.25326589236e-06,-4.824583861e-06,-5.10613861212e-06,0.000660689453202,-0.0001282640602,-4.95473054577e-06,-1.60879957403e-05,-0.00123560563739,-4.41742124738e-06,-1.23921763604e-05,-0.000196662460934,-4.23745869541e-06,-9.63862260069e-06,0.00131983401071,-5.74976177819e-06,-0.000251165800447,-7.70434584401e-06,-3.28657567648e-06,-2.0666096819e-05
-3.54270572044e-05,-3.44372807334e-05,-0.000571608187455,1.46520062759e-05,-0.000149022537401,-1.60905110458e-05,-2.62754325713e-05,-1.24229385124e-05,2.06729845784e-05,-1.56328715815e-05,0.00267389230266,-0.000398468100695,-1.43105359468e-05,-5.61725823021e-05,-0.00131925381813,-1.00358262949e-05,-3.56097297942e-05,-0.000548755278185,-2.58691978499e-05,-2.25023845702e-05,0.00143713071511,-1.83443547611e-05,-0.000599393639055,-1.76375005344e-05,-7.44218380724e-06,-5.36318123241e-05
-0.0800571981232,-0.0236206288239,-0.150077052578,0.00390793013624,-0.0601787824505,0.0224808813789,-0.0621631560897,0.00413866212385,0.00125133911303,-0.0583016768878,0.0295334780648,-0.0474303561886,-0.0566663598646,-0.125517867943,-0.132797949248,-0.0942370835132,-0.0871701583514,-0.103801205416,-0.189010509856,0.0803740323325,-0.152943837964,0.174744125552,0.0260635124633,0.0160233425907,0.00328304293252,0.0211467003181
-0.148333226309,-0.0163771340575,-0.264063985746,0.0293879174841,-0.0997598063467,0.0254516324985,-0.112969516237,0.0359470643135,-0.000731463809676,-0.0527640789834,0.0782574628979,-0.0728201411915,-0.0698725193349,-0.139690329746,-0.252575275642,-0.172338748621,-0.163005174525,-0.163183878839,-0.297234667153,0.16301242382,-0.114301670203,0.169898023162,0.0177912607999,0.0451522773053,0.0363261501717,0.0639045661668
-0.195855738559,0.00258124746512,-0.310641949599,0.0912588211396,-0.101776143268,0.0335987166669,-0.146085752366,0.0545258552171,-0.00130146789761,-0.0222793718771,0.0774741652479,-0.0757220277638,-0.0669177316178,-0.084505196453,-0.312256698057,-0.227092025974,-0.214224804095,-0.161783229631,-0.331176851805,0.233458985954,-0.0092960808164,0.0878258324364,-0.0409135596134,0.0837942869006,0.0526989388881,0.0917440624659
-0.215891871948,0.0219782374726,-0.299004358588,0.173348741494,-0.107989915527,0.0430217987719,-0.162162939638,0.00978228128133,-0.00312911445562,0.0154787815483,0.0274993883238,-0.101131784365,-0.0509609714273,-0.0390604005222,-0.30299366271,-0.225162462776,-0.23619363649,-0.141648148291,-0.298388600676,0.271575090125,-0.00779444871443,-0.0169268733571,-0.0398459510165,0.0943177366001,0.0585602545707,0.0993075332593
-0.20796944779,0.0228188281798,-0.245468666544,0.238560992222,-0.0768081522507,0.0442432072188,-0.155402016939,-0.0348682432802,-0.00365875200555,0.0303301779209,-0.00823192593305,-0.140221401051,-0.0478105815355,-0.0545390497832,-0.254451398642,-0.169398518931,-0.203947786863,-0.112485603417,-0.250033125093,0.254129194709,-0.0232182562198,-0.107112802865,-0.0576753976105,0.053895056063,0.077682475131,0.104626550022
-0.157340864893,0.0499727491,-0.189367612216,0.219287021033,-0.032109342708,0.0357264950383,-0.126753266343,-0.0787758207537,-0.00170967067819,0.0325966872488,-0.0334360963688,-0.17011449131,-0.0452551542976,-0.0934504980262,-0.164879710483,-0.0496715289026,-0.1245458775,-0.0597168572136,-0.173851074566,0.197258930678,-0.0514223018356,-0.138822570149,-0.085034147544,-0.00426988391076,0.0583636246141,0.112991803527
-0.0967785489732,0.0836919990617,-0.119015452452,0.183275109633,-0.00679375086421,0.0278057338183,-0.0816891520959,-0.105075604864,-0.00595290722382,0.0333890654072,-0.0412314700939,-0.205757617854,-0.0643004696735,-0.150624479116,-0.0666263764293,0.0548257551858,-0.0485294951828,-0.00679336739906,-0.0821977473197,0.130403015772,-0.0651192333052,-0.157216769832,-0.116469476426,-0.0601946717232,0.0198588047615,0.108967307241
-0.0216368969327,0.086121815061,-0.0394495459839,0.179241700333,-0.020184657006,0.0217835692175,-0.0315718217508,-0.144656101554,0.00539139128077,0.0349225723327,-0.086846664145,-0.227619543749,-0.0846770433883,-0.185556505038,0.00608185606333,0.134970037151,0.0302187004358,0.0532650084145,-0.0220782575546,0.112136670456,-0.095330736002,-0.169875859665,-0.165156001421,-0.115619455283,-0.0680932422961,0.0936556732787
0.0320226535072,0.0752820975704,-0.00456193265253,0.106120192057,-0.0242929048179,0.0152699592789,-0.00122792284698,-0.208072807962,0.0127738956927,0.0256802874964,-0.156230129948,-0.246880894694,-0.121279380311,-0.223670385147,0.0632205638537,0.205425570713,0.101408129788,0.0925603793478,0.0300574739508,0.112749841816,-0.126127584365,-0.191154710179,-0.206891022847,-0.1998300164,-0.180274342613,0.0608618412374
0.0325351938705,0.0503085177186,-0.00226658470504,0.0483381644057,-0.0472259520884,0.00463195974879,0.0310394312499,-0.279576391806,0.00651574470685,-0.0059908029051,-0.250912957467,-0.28051120972,-0.163451744083,-0.24110902871,0.112477848611,0.264989582771,0.166681957844,0.122864452524,0.0578630850329,0.110349415662,-0.22632756993,-0.211649186731,-0.226733166368,-0.289767411085,-0.313523635805,0.0386778381334
0.0303410823352,0.0315683370112,0.014618584797,0.00212854998356,-0.0715368296201,-0.00227102977424,0.0669945125777,-0.345116745162,-0.00462370641149,-0.0520522518267,-0.317306450831,-0.303495596149,-0.194362511239,-0.288296057968,0.120247942482,0.322009634736,0.232573146097,0.136179815296,0.0626334874371,0.115479795612,-0.372446480233,-0.230897971123,-0.250456706985,-0.344716158595,-0.425520052425,0.0206742128779
0.0243274195231,-0.0117651202858,0.0273805527248,-0.0598292312328,-0.0913398256453,-0.00547073149634,0.0810241925158,-0.377210674228,-0.024622646128,-0.0792047086315,-0.323812666977,-0.311604008639,-0.231009484593,-0.333550277163,0.122244005192,0.397907386981,0.257873024671,0.115405400415,0.0687074498244,0.0971409874064,-0.455076993394,-0.244939669168,-0.271812096014,-0.341228414635,-0.491849901954,0.00497019224198
-0.00818114465636,-0.00805228241239,0.0676246109501,-0.11394360135,-0.103853367072,-0.00234377636286,0.0515035728712,-0.320528526727,-0.0485921623578,-0.0826912028636,-0.292029529095,-0.335851830046,-0.255476878436,-0.334793524663,0.0680370386172,0.430850709391,0.234131040162,0.102668575895,0.0732137084156,0.0266675079706,-0.414428668054,-0.246485888921,-0.295672502457,-0.278967388104,-0.401756921798,-0.0344632872346
-0.0366147977383,-0.0133338664955,0.0877484947273,-0.175722530765,-0.0781722374636,0.00681365498372,0.0199868292665,-0.243382801224,-0.0610111779616,-0.0908313166122,-0.245990727044,-0.335406194063,-0.255423309459,-0.242834175306,0.0420803180147,0.329413431336,0.170266117461,0.0912704025422,0.0479960389323,-0.0443976431369,-0.242113982503,-0.234580237873,-0.304590861581,-0.196766609565,-0.150799591994,-0.078194890304
-0.0726554822972,-0.0484679686389,0.0994728026618,-0.236492690644,-0.036523597648,0.0246731690691,-0.0198315496156,-0.174010028887,-0.0480037858415,-0.0817481911451,-0.189115256596,-0.319691831096,-0.224276816512,-0.0741481414902,0.0336651662842,0.157556682831,0.0890171522947,0.0791986468956,0.0121641023159,-0.0528368353571,-0.0965816415592,-0.194355882862,-0.271162992314,-0.141605388197,0.0167913664198,-0.114874188662
-0.0981953527601,-0.0998287247426,0.0966736160824,-0.313903559527,-0.0278026347449,0.0507943976411,-0.06022774848,-0.144725037209,-0.0184482558865,-0.010856462019,-0.135074209809,-0.307172672977,-0.186044903213,0.0406679116666,-0.0153890580898,0.0162131568348,0.026443369216,0.0344413995443,0.0177441103165,0.0207182824537,-0.0301388950229,-0.0809002454362,-0.188098629839,-0.0893197089927,0.0559501649375,-0.158211328943
-0.0766174879442,-0.117081335709,0.0353817514066,-0.357103968887,0.00508116924073,0.0867010838154,-0.0852224596118,-0.103467554929,0.0174375643531,0.0447782267375,-0.0869914618723,-0.274032529841,-0.143623833064,-0.00817589208772,-0.0601955982932,-0.0803688080128,-0.06695174003,-0.00272994378863,0.0907249877486,0.124871460463,-0.0369228576282,0.156615611764,-0.0857451245336,-0.0111927999787,0.0589176161279,-0.182517669398
-0.0756509394715,-0.119449847958,-0.0376030901825,-0.38840696689,0.00379620913829,0.122878387264,-0.127264003062,-0.0170128852583,0.0433891527486,0.100163727938,-0.0617202906514,-0.234284052527,-0.125919151618,-0.0274440186399,-0.123442503836,-0.180137031076,-0.145367490266,-0.0708028484619,0.0662180150525,0.182021416064,-0.0981596278387,0.36988366568,-0.0503045734348,0.0510568676862,0.0860001534209,-0.209597051999
-0.16078758299,-0.191214661536,-0.101354998174,-0.368595119348,-0.0608636705014,0.149127530555,-0.136856876002,0.0599701176636,0.0585933550185,0.179767452471,-0.0406000519592,-0.206316581219,-0.107508093639,-0.053670368603,-0.202246351244,-0.254961837622,-0.196559081767,-0.18071191954,-0.0465318375097,0.158144311629,-0.189777893172,0.45030081796,0.0512793044775,0.041903030111,0.0662347810301,-0.214535748061
-0.15727400664,-0.17727357031,-0.11144689488,-0.227429593532,-0.0830927373027,0.148116801695,-0.106913023444,0.0469791656129,0.0530298722552,0.151539003372,-0.0168161706017,-0.135744422801,-0.0843082540939,-0.0608618906512,-0.188363923027,-0.263864021191,-0.155477683974,-0.224756779898,-0.109398670509,0.0909882023371,-0.285165510411,0.41855278215,0.0265068557247,0.0137385961247,0.0181468187631,-0.139961686051
0.00037997295762,-6.43522565957e-05,-1.69397541962e-05,-2.50248094335e-05,-1.54163101105e-05,-3.84961160131e-06,-1.87245548528e-05,-1.78118723814e-05,0.000280619914915,0.000482383191386,-3.97318396621e-06,-1.9565765531e-05,-1.15072991663e-05,-1.48511079387e-05,-4.33923949481e-05,-7.97524985642e-05,-2.53534825304e-05,-3.02098484383e-05,-0.000168724607596,-4.89089915281e-06,-4.40026239712e-05,-4.06320554375e-05,-6.72697705776e-06,-1.18233727186e-05,-1.98874963223e-05,-9.5774718475e-05
-8.03707745302e-06,-3.39237860068e-05,-1.39165030881e-05,-1.9992374244e-05,-1.04160094252e-05,-2.0647061247e-06,-1.46276807042e-05,-1.27857479822e-05,8.41096801569e-05,0.000493385936228,-1.86922126186e-06,-1.68531232945e-05,-1.08385701876e-06,-1.87876785127e-06,-3.42978110138e-05,-7.34531065217e-05,-1.79956752383e-05,-9.43510221904e-06,-6.79766386065e-05,-2.24342205678e-06,-3.91767224573e-05,-3.79169827265e-05,-3.7472721994e-06,-6.91769320271e-06,-1.71444860152e-05,-5.68125356989e-05
-5.9853781334e-06,-2.33028573282e-05,-1.0383946071e-05,-1.48718228334e-05,-7.5148135207e-06,-1.49090055233e-06,-1.05935797123e-05,-9.79451218684e-06,1.74363125763e-06,0.000390030566289,-1.31557224535e-06,-1.27861158669e-05,-7.42062139612e-07,-1.35492168236e-06,-2.63272959728e-05,-5.68681739733e-05,-1.21885660502e-05,-5.41134914836e-06,-2.21976590372e-05,-1.43726867966e-06,-2.96481029887e-05,-2.93027398752e-05,-2.7913019394e-06,-4.43655401708e-06,-1.3011217242e-05,-3.2455959607e-05
-9.94140920949e-07,-3.84255433423e-06,-1.72500615402e-06,-2.46989335845e-06,-1.24472228175e-06,-2.4696538117e-07,-1.75526705521e-06,-1.63070324463e-06,-5.77807094525e-07,6.51039641868e-05,-2.17420511766e-07,-2.12705989861e-06,-1.223253114e-07,-2.24415495921e-07,-4.38401224035e-06,-9.47637041399e-06,-2.00717766212e-06,-8.75790310852e-07,-3.28200387227e-06,-2.3539758307e-07,-4.93112830641e-06,-4.8822092838e-06,-4.6363006475e-07,-7.26701468398e-07,-2.16456372454e-06,-5.25041136089e-06
0.0,0.0,0.0,0.0,0.0,0.0,0.0,0.0,0.0,0.0,0.0,0.0,0.0,0.0,0.0,0.0,0.0,0.0,0.0,0.0,0.0,0.0,0.0,0.0,0.0,0.0
-7.35467472683e-07,-2.87731958097e-06,-1.80427901067e-05,-4.46121655817e-06,-7.35252939961e-07,-6.80012021988e-07,-9.96872668707e-07,-7.01152536366e-07,-6.78942260931e-07,-9.17991380758e-07,-6.81824947738e-07,-7.67927993308e-07,-9.28456012063e-07,-6.92164424692e-07,-0.000422759225835,-6.83339613551e-07,-1.62968529389e-06,-7.59075591637e-07,-8.40301954412e-07,-6.78010965254e-07,0.000455730366374,-7.07609408432e-07,-7.46640226813e-07,-6.77955442788e-07,-6.77833586641e-07,-7.95435449124e-07
-1.51428037579e-05,-3.34811587033e-05,-0.000181878659976,-2.04994029111e-05,-3.22588759593e-05,-6.56830365912e-06,-1.43184217891e-05,-5.66305136468e-06,-4.64465543565e-06,-7.68581127027e-06,0.00044321440035,-0.000105308895737,-1.1971767332e-05,-1.2479461637e-05,-0.00128607956914,-4.41501445492e-06,-2.52708255595e-05,-0.000149491267938,-5.9864418164e-06,-8.5100488629e-06,0.0015311982251,-5.93875487954e-06,-0.000210817289169,-7.0307886349e-06,-3.33471530117e-06,-1.92308202241e-05
-4.04791582046e-05,-9.47215099703e-05,-0.0007056065203,0.000483534307071,-0.000182668296095,-1.81661535654e-05,-4.23055485672e-05,-1.65441272848e-05,7.07781302675e-05,-3.04857639163e-05,0.00265960462551,-0.000452550209549,-3.46154738509e-05,-7.0077924194e-05,-0.00150523457452,-1.24662347714e-05,-7.46557388189e-05,-0.000540212084052,-5.9287190696e-05,-2.45225840859e-05,0.00201650440019,-2.32787836442e-05,-0.000629617741124,-2.065421247e-05,-9.66861408572e-06,-6.94086332846e-05
-0.125310683026,0.0001506211273,-0.197659574523,-0.0115221884096,-0.0932976894,0.0256726446233,-0.0891992987557,-0.00535280159946,-0.0240635100093,-0.0586317328723,0.00853457615098,-0.0774676905471,-0.0534608202106,-0.142006856378,-0.191151121178,-0.106623936033,-0.131333161091,-0.115938612231,-0.246514530525,0.112557509199,-0.146345300091,0.20900766451,0.0602825607159,0.00794215221601,-0.0478268035963,0.0183035252694
-0.206664939704,0.0225370857374,-0.333110804959,-0.00787476802865,-0.131994685518,0.0216493101373,-0.156712041753,0.0337015995938,-0.0398153936783,-0.0517231225626,0.0492409243294,-0.119135826586,-0.0617722948937,-0.163409886889,-0.282136576683,-0.189194545286,-0.221348147544,-0.157997708762,-0.332735569152,0.203792411805,-0.0691384702963,0.211263747629,0.0855110029714,0.0394217812265,-0.0132473412248,0.0653043692223
-0.241633680642,0.0301694154849,-0.342875739636,0.0134359723888,-0.113103969054,0.0242878009829,-0.175267679458,0.0483710305722,-0.0420005073281,-0.0167073091701,0.0499802053158,-0.119575889038,-0.0579977065232,-0.0659974841335,-0.246543262072,-0.236997852926,-0.24699560218,-0.17508004961,-0.296615763078,0.270090126798,0.0376334713436,0.125824811057,-0.00213649928909,0.0831112549424,0.0507490123595,0.0943262155599
-0.245963251609,0.00980868269191,-0.283072211352,0.0712780179665,-0.0876955318041,0.0325382802981,-0.162892689641,0.0124443406805,-0.0470024839019,0.024008205577,-0.0178316010778,-0.151452023748,-0.0222831355092,-0.0141188337995,-0.165004671344,-0.231313950683,-0.232067887291,-0.151371819648,-0.224891213306,0.289785819478,0.041853577622,0.0256653603935,-0.0324102841558,0.098918492717,0.0630336353169,0.0970842114229
-0.241699033836,0.000898161508802,-0.205079542088,0.118725003295,-0.0729232393707,0.0303238414069,-0.136071850068,-0.0253770042799,-0.0601368202402,0.0471896061089,-0.0478904795473,-0.198702642381,-0.0194409730165,-0.0140401161649,-0.08429963517,-0.215969568913,-0.164977102234,-0.112212250556,-0.171948657925,0.262802354873,-0.0191427912979,-0.1013819035,-0.0602584775664,0.0662315956724,0.0650031195954,0.0853975730796
-0.206094749251,-0.0328116374995,-0.119376495404,0.139991098369,-0.0447511774423,0.0189872981612,-0.0997298740123,-0.0574796162165,-0.0707184313363,0.0536457528469,-0.0646303197088,-0.238655587917,-0.0206288202176,-0.0467679706833,-0.0281588099316,-0.150497922306,-0.102445286424,-0.0813849316975,-0.101806070622,0.202050655924,-0.0351314747952,-0.17913239184,-0.104508287309,0.00462148765912,0.0755817724054,0.0746022476863
-0.152459422261,-0.0456887610534,-0.0541006838305,0.126749851623,-0.0102141899311,0.00820634359647,-0.0597825289623,-0.0709516809431,-0.0776978292774,0.0385873408764,-0.0609904787173,-0.260149117651,-0.0260512182399,-0.0983688435255,-0.0177614262643,-0.0954801975719,-0.0737915497569,-0.0696546462527,-0.0540552255251,0.132197037015,-0.0371202023101,-0.200965617069,-0.145189490177,-0.055198173892,0.0815803968262,0.0903102163335
-0.0450440292303,-0.046304609359,-0.00422689646017,0.12917318876,0.0175659651966,-0.00591995554123,-0.0407528076775,-0.07830579534,-0.0514570441265,0.0460971505949,-0.0769539908912,-0.257043598442,-0.0313697812754,-0.151156646132,0.0198933448612,-0.0433678285734,-0.00269252160943,-0.0431194116757,-0.013719804938,0.143420521396,-0.060394095362,-0.211615036203,-0.189859268374,-0.110277664517,-0.00351187281665,0.0972714262211
0.0489241954537,-0.0364874561582,0.0225619365978,0.0787508224976,0.0253618816504,-0.0204366674435,-0.00807980019471,-0.118663647107,-0.02901101574,0.046476327024,-0.132465141078,-0.277003750741,-0.0592896078257,-0.17923318858,0.0352955949124,-0.0185631540101,0.0636066442913,-0.0177854473394,0.000320741283213,0.205812280338,-0.0619444222416,-0.23077752619,-0.205257215303,-0.198330075901,-0.138403491523,0.0926627067543
0.0881975898723,-0.0388589314052,0.0401424864705,0.0404202681193,0.0232196745637,-0.0340771182523,0.0325298149886,-0.190973015761,-0.0255831267345,0.006625978706,-0.225630432694,-0.305811857569,-0.103163295646,-0.193499944756,0.0696508183714,0.0185799062966,0.138189868096,0.052246085024,0.0231120235513,0.262481401106,-0.149662169199,-0.244291744637,-0.198439194763,-0.291950081577,-0.264304622762,0.0831844224112
0.108170703634,-0.0297994638038,0.0897959202526,0.039229360592,0.0091528648739,-0.0435551829569,0.0684278795037,-0.272742865215,-0.0304622710569,-0.0193921655919,-0.268445604095,-0.30826866689,-0.131279915462,-0.259994158687,0.126782500218,0.119932081174,0.192123330744,0.109764852208,0.070113189048,0.290302005795,-0.287458115352,-0.253849279045,-0.220507542347,-0.34340902832,-0.377087646577,0.0529381852628
0.129696129428,0.0240644649545,0.128949494901,0.0112377407504,-0.0127610439941,-0.0452512375672,0.0821236560971,-0.310425167347,-0.0518888099678,-0.0357408479698,-0.253502168581,-0.29931954341,-0.143906180871,-0.335677838204,0.185424145338,0.237503695735,0.202530632372,0.171562045858,0.121132124492,0.265891553687,-0.3564357159,-0.25838571379,-0.252005867004,-0.298700980603,-0.374637988574,0.0183324529463
0.124528975843,0.0212572734615,0.135383282589,-0.0403716012725,-0.0368495173499,-0.0540449045361,0.0482508410865,-0.240177838493,-0.0929340013659,-0.0615195441942,-0.199162560781,-0.31002757574,-0.173965689923,-0.358610556947,0.154573659681,0.312746399716,0.171462664356,0.167602327149,0.114098652206,0.141274842013,-0.301713561359,-0.253097369725,-0.287144983424,-0.211838730286,-0.217212377359,-0.0331527829298
0.0800566345345,-0.0415580030903,0.0557861006369,-0.0935993903932,-0.0549714842588,-0.0640080923047,0.0240589656509,-0.16891666241,-0.131534203042,-0.0494916464162,-0.137824206953,-0.314204187227,-0.205679169074,-0.255531344882,0.154456352065,0.268809227211,0.107967236026,0.159471315003,0.0630274609393,-0.00144726146291,-0.151054516919,-0.227647091296,-0.315809540311,-0.141255339821,-0.035639212816,-0.0848798081402
0.0433447125229,-0.0808815515849,0.0573065951333,-0.132516401678,-0.0218986456642,-0.0678406820398,-0.00992384741398,-0.131916698473,-0.128439982314,-0.0378003544906,-0.106031706291,-0.308713039036,-0.181012593523,-0.048011378571,0.123676608162,0.0998339423811,0.0495931532245,0.126631668936,0.0365733395632,-0.035175165948,-0.0383034540063,-0.148777571733,-0.279168868539,-0.116950295928,0.0374548610546,-0.118250779894
-0.0043805458331,-0.0701211061506,0.07158056799,-0.160891741131,0.00935509277907,-0.0669145760178,-0.0393013797324,-0.128355528519,-0.120485519055,-0.01206052944,-0.064746622096,-0.300065103301,-0.134085471653,0.04239979925,0.0495708326379,0.00912252413326,0.0181555218497,0.0678175519246,0.0607744715363,0.0172689879883,-0.0114163835774,0.00143815959694,-0.19715333722,-0.0834192320408,0.0763491045391,-0.115843804844
-0.0436648712848,-0.0559795024874,0.0378857359811,-0.208145335964,0.0268587320536,-0.0498843438675,-0.0657421536219,-0.117464472719,-0.0915372496099,-0.00808687487488,-0.0430727299856,-0.277463343486,-0.0957434441404,0.00974904405064,0.00850694600965,-0.0288234597843,-0.0127464137562,0.00800040716946,0.138424122567,0.0950368892372,-0.0363387982893,0.205806074138,-0.111197744769,0.00707457852643,0.0772629012457,-0.114167876119
-0.0913522650328,-0.0136583350507,0.00854626308255,-0.301604891674,0.00699083624514,-0.0255942302672,-0.111730441476,-0.0353116497611,-0.0645384648386,0.0160618034363,-0.0403891915052,-0.27237947636,-0.0960856479455,-0.0328967029755,-0.0588803686902,-0.0374011935994,-0.0796005856044,0.00645931638212,0.159294863809,0.127531222219,-0.0193169998108,0.296848804624,-0.0334135449088,0.0123544510222,0.0820433482733,-0.149719546311
-0.221727170393,-0.0536882600856,-0.07726109186,-0.381323347969,-0.056306613575,-0.00520820669371,-0.138631920597,0.0220763075005,-0.0508034124332,0.0809203207171,-0.0605198677883,-0.267237375872,-0.0862644887172,-0.0415790763167,-0.163857323843,-0.100268312389,-0.188741913545,-0.125975226131,0.0854007990823,0.131260794713,-0.0945725813661,0.329599948668,0.0571212272284,-0.0286179654658,0.00024215691883,-0.184699615929
-0.20705581829,-0.112424919838,-0.0911479170683,-0.268844041883,-0.0210676499108,0.00930777871447,-0.104330953916,-0.00130698717941,-0.0274472261806,0.0960474615557,-0.0557830062829,-0.178973671348,-0.0716550905113,-0.000638195562768,-0.226753882393,-0.161936571118,-0.179975298736,-0.201570473178,-0.0274735744967,0.103403089587,-0.13598353844,0.285039368425,0.0499975106753,-0.0401032282107,-0.0874901328281,-0.139928275647
0.00118127028871,-2.87387009551e-05,-5.0048209848e-06,-9.42079425763e-06,-7.74060373702e-06,-3.80629979161e-06,-5.09040889276e-06,-1.24491909417e-05,-4.05274001787e-06,4.81071180493e-05,-6.116395082e-06,-5.35200850535e-06,-1.48188567351e-05,-0.000104224874099,-2.92745920825e-05,-1.42122859571e-05,-5.51540528755e-06,-3.02710254755e-05,-1.48213734641e-05,-4.21947379581e-06,-8.38804870592e-06,-7.53361714596e-06,-1.06825772902e-05,-8.33138307221e-06,-5.43384937262e-06,-8.26955414829e-06
7.75845987383e-06,-3.13742754232e-06,-1.40342595579e-06,-2.07281131533e-06,-1.03839478476e-06,-2.20684169445e-07,-1.42804421848e-06,-1.34287242061e-06,-4.8534641125e-07,5.20593837845e-05,-2.60751297532e-07,-1.72638687702e-06,-1.65321557636e-07,-2.39452682865e-06,-3.70121547916e-06,-7.60527531054e-06,-1.63060980424e-06,-8.89966074948e-07,-2.67573265565e-06,-2.12788687412e-07,-3.97331310106e-06,-3.92897969587e-06,-4.53416189623e-07,-6.59600392123e-07,-1.75488224014e-06,-4.22617622328e-06
-5.96484552569e-07,-2.30553260054e-06,-1.03500369241e-06,-1.48193601507e-06,-7.46833369053e-07,-1.48179228702e-07,-1.05316023312e-06,-9.7842194678e-07,-3.46684256715e-07,3.90623785121e-05,-1.3045230706e-07,-1.27623593916e-06,-7.33951868401e-08,-1.34649297553e-07,-2.63040734421e-06,-5.68582224839e-06,-1.20430659727e-06,-5.25474186511e-07,-1.96920232336e-06,-1.41238549842e-07,-2.95867698385e-06,-2.92932557028e-06,-2.7817803885e-07,-4.36020881039e-07,-1.29873823472e-06,-3.15024681653e-06
-6.62760613966e-08,-2.56170288948e-07,-1.15000410268e-07,-1.6465955723e-07,-8.29814854503e-08,-1.64643587447e-08,-1.1701780368e-07,-1.08713549642e-07,-3.85204729683e-08,4.34026427912e-06,-1.44947007844e-08,-1.4180399324e-07,-8.15502076001e-09,-1.49610330614e-08,-2.9226748269e-07,-6.31758027599e-07,-1.33811844141e-07,-5.83860207235e-08,-2.18800258152e-07,-1.56931722047e-08,-3.28741887094e-07,-3.2548061892e-07,-3.09086709833e-08,-4.84467645599e-08,-1.44304248302e-07,-3.50027424059e-07
0.0,0.0,0.0,0.0,0.0,0.0,0.0,0.0,0.0,0.0,0.0,0.0,0.0,0.0,0.0,0.0,0.0,0.0,0.0,0.0,0.0,0.0,0.0,0.0,0.0,0.0
-3.91733821461e-07,-2.0905742881e-06,-1.09824719949e-05,-2.2148641071e-06,-3.75764581713e-07,-3.273354383e-07,-6.653242904e-07,-3.58173684932e-07,-3.25723351576e-07,-5.29913756342e-07,-3.29780877943e-07,-4.09519013681e-07,-6.89978135754e-07,-3.43997408962e-07,-0.000194264110061,-3.31937778512e-07,-1.26143145638e-06,-4.06094960332e-07,-4.64663064947e-07,-3.24313859398e-07,0.000214741787974,-3.66887197556e-07,-4.08340614566e-07,-3.242678262e-07,-3.24088597212e-07,-4.29915489049e-07
-1.43674633045e-05,-6.11406957354e-05,-0.000266113411558,-2.64425089851e-05,-2.58448486299e-05,-6.21326647509e-06,-2.06948622208e-05,-6.71019615332e-06,-4.77000840674e-06,-1.13826347046e-05,0.00045602750523,-8.05924094924e-05,-2.14359505017e-05,-1.08784615506e-05,-0.00130080384439,-4.83364538851e-06,-4.27344374917e-05,-0.00010992224107,-8.77076514511e-06,-7.80250728183e-06,0.00173838013972,-7.50881184708e-06,-0.000156956096085,-6.62275305743e-06,-3.78074380902e-06,-1.77828524067e-05
-4.13705732938e-05,-0.000112089564957,-0.000716519294857,0.000696997749303,-0.000181972812081,-1.86989838764e-05,-4.66191809801e-05,-1.86402180471e-05,-3.1481486934e-06,-2.57059973223e-05,0.00289848570082,-0.000458451538218,-4.22822601543e-05,-9.06274776169e-05,-0.00157406161326,-1.3567430194e-05,-8.57600674212e-05,-0.000522934359521,-2.77088099737e-05,-2.5186903148e-05,0.00221654531231,-2.5953265923e-05,-0.000605829257634,-2.08746399029e-05,-1.05210622925e-05,-5.66699079361e-05
-0.162512141223,0.0177916330716,-0.240355102951,-0.0389614807779,-0.115255159483,0.0235337700864,-0.11584758839,-0.0296974843188,-0.0440415903755,-0.0607889785276,-0.0292390926772,-0.0890310256873,-0.0399821645261,-0.163320754304,-0.209144477704,-0.104294699518,-0.162309953325,-0.105959126798,-0.244604695202,0.111169840764,-0.139612685971,0.205372271911,0.104336689325,-0.0493129786596,-0.130292459394,0.0492876943651
-0.246228397345,0.0351497804115,-0.353580656777,-0.0495705384578,-0.11382592865,0.0267616868444,-0.184014971564,0.00319319444572,-0.0689375873401,-0.0423289173368,-0.00434232615358,-0.134131670567,-0.0533543851294,-0.161989715573,-0.276183372583,-0.142481941459,-0.236207886097,-0.135255461319,-0.279946779942,0.174063362799,-0.0394943710953,0.23179550144,0.142957508018,-0.00799420656927,-0.0927523579911,0.085079670153
-0.261642100792,0.025050516668,-0.31212392249,-0.042090882268,-0.0736825006291,0.0385096417102,-0.172252811365,0.0305937191977,-0.0761181436591,0.00243555913019,0.00902470723875,-0.142873979963,-0.0555420211759,-0.0463446540792,-0.154976508767,-0.142961847097,-0.211256701999,-0.142622238371,-0.191447136024,0.205348773075,0.0478047597796,0.160325194498,0.0289350869243,0.0602514643153,0.00541389217703,0.090105680263
-0.25763474556,-0.0433982613029,-0.202951011827,-0.0149032459889,-0.0851979840435,0.0367743812647,-0.132551708562,-0.00482831179017,-0.083419718458,0.0272383754976,-0.0624065558411,-0.180803150904,-0.00782220241046,-0.0104731947754,-0.0735958066923,-0.134997013359,-0.165273612801,-0.127306381894,-0.118472537699,0.209064559792,0.0319807964572,0.052767099025,-0.0331423562299,0.0726833270559,0.0633080767728,0.0869783799256
-0.243092638487,-0.0544443310764,-0.13558491643,0.00758386499395,-0.104738657884,0.0230163821226,-0.0971190621964,-0.0281108546824,-0.102258062257,0.0303962329581,-0.108129645663,-0.213346103235,-0.00187299847484,0.0222163523732,0.0140638581441,-0.150727653274,-0.120807238058,-0.122106463468,-0.130061390843,0.175579884616,-0.0403989868389,-0.0830436910356,-0.080644781095,0.03376992428,0.0790290869007,0.0678427330511
-0.228073372501,-0.107968056399,-0.0627244716828,0.0296853662608,-0.101327317802,-0.00427533451871,-0.0784261830676,-0.0640696549793,-0.116712673992,0.00670488271065,-0.0979551454097,-0.259891657323,-0.00737092703539,0.00491397918307,0.0067950265134,-0.128645736447,-0.11018766078,-0.152667663526,-0.122621608146,0.115950065245,-0.0427488348548,-0.191113121901,-0.123402611314,-0.0189703009761,0.0784333633536,0.0532178073794
-0.195460926404,-0.123303308258,-0.0567243386557,0.0262138717334,-0.0721513873819,-0.0379753912668,-0.0713268054138,-0.0540820506779,-0.12666966782,-0.0193547604687,-0.0846481000158,-0.263886558585,0.0156159450067,-0.039323223956,-0.00295590342743,-0.100983799101,-0.0895877397209,-0.16911649396,-0.0993779933639,0.061996754519,-0.0364286356144,-0.23966590087,-0.17963088341,-0.0292825674438,0.0801516412738,0.0451263775223
-0.102417917215,-0.105891306995,-0.036048043576,0.0449663765185,-0.0580459936456,-0.083214597895,-0.0566833405142,-0.0179164989046,-0.10229227244,-0.01292062556,-0.0836568760273,-0.251231455142,0.0109437087113,-0.091086242326,0.0269673624876,-0.0938734243127,-0.0170264075742,-0.151103313937,-0.0942828920691,0.10316125374,-0.0492089441621,-0.253338366377,-0.212481426725,-0.0906740391637,0.0107035513507,0.0398157680507
0.00503582709038,-0.108359337443,0.0178809317262,0.047796361885,-0.00885911044712,-0.120240931737,-0.0237930866828,-0.0314757482263,-0.0754046022982,0.0241285445883,-0.145838738817,-0.255921546324,-0.000159993105582,-0.113034729084,0.0677698655927,-0.132042261421,0.0683476567569,-0.0919774729401,-0.119256706532,0.213819130015,-0.0443809974389,-0.265380954033,-0.178825420125,-0.175815883001,-0.132480975169,0.0256161664528
0.103785874012,-0.104097686861,0.0671242734319,0.043597189994,-0.00294534311381,-0.137354511759,0.0134993396612,-0.100701853377,-0.0635116348668,0.034348974502,-0.205716536853,-0.263474606715,-0.02999854875,-0.159124466383,0.123942849204,-0.126020817744,0.138994557882,-0.0381670102313,-0.0910489833818,0.298576383969,-0.142533400047,-0.268961057818,-0.151843470046,-0.272781527695,-0.259597070055,0.00702759475357
0.182243936147,-0.0449193581726,0.125288367177,0.0521372328803,-0.000545994291772,-0.146548832099,0.0367057811026,-0.207199391503,-0.0579883937695,0.0317315544177,-0.193045727652,-0.265302824272,-0.0567615446675,-0.24012890544,0.160446482924,-0.0419233061057,0.14727254015,0.0389265988858,-0.0182238544644,0.36521740167,-0.268155367874,-0.267218392207,-0.18220674904,-0.301971567191,-0.354085346075,-0.0307790830572
0.206304827294,-0.0272219014961,0.143094364717,0.0429479866512,0.0274875350782,-0.138314836269,0.0430642709753,-0.241026528114,-0.0685601171283,0.0255518368863,-0.150106144404,-0.258459392784,-0.0849326301999,-0.334431395142,0.194304993481,0.0749454721529,0.116518444284,0.116379622627,0.050585580557,0.327203519052,-0.321582744968,-0.260179481285,-0.22585466505,-0.240673062118,-0.246383847794,-0.0631709003947
0.203617105526,-0.0597149294025,0.0915457892629,-0.0244815620934,0.0296611677309,-0.14417154057,-0.0042462556543,-0.186443162683,-0.117696201148,-0.010853880167,-0.0924367001899,-0.267368087141,-0.119600465476,-0.397699108171,0.184726053131,0.183308792073,0.0655817760012,0.158601267481,0.0385863788603,0.156913271011,-0.254496195976,-0.228212188858,-0.305254485367,-0.150548787579,-0.030330994606,-0.0820005366249
0.149529320035,-0.12466398359,0.00325189267141,-0.0752139718647,0.000863181248504,-0.161049409615,-0.040805741911,-0.114501578909,-0.163917934629,-0.0418628282786,-0.0730737040126,-0.277885982021,-0.15544739183,-0.289612037768,0.134287238617,0.218594586882,0.00997627630906,0.126859719529,0.0101878170512,-0.0278561180898,-0.126199975252,-0.164388904386,-0.340074753493,-0.125582095259,0.0451268882565,-0.106429013879
0.0910568034252,-0.130914665566,-0.00309014773871,-0.0919770295541,-0.0228686355832,-0.175487363932,-0.0571334427371,-0.109230688563,-0.179905019348,-0.0319340749013,-0.0634260245766,-0.281470690275,-0.126484101826,-0.0662004677363,0.0689658250521,0.150697353578,-0.00376762952822,0.0616642245305,0.0194568451506,-0.0726619520761,-0.0398871047163,-0.0829474177291,-0.307313186521,-0.125046082109,0.0318423306467,-0.100971814929
0.00714696869922,-0.070574374377,0.0238807550439,-0.0838329985901,0.011975146367,-0.18077215657,-0.0964264792466,-0.129695880263,-0.189972185353,-0.00735303546546,-0.0380438328268,-0.279943380876,-0.072839864046,0.0373971075613,0.00839004600213,0.0616062235146,0.000676110418987,-0.00544862602577,0.0956600974717,-0.00771462954571,-0.0713405320423,0.046875666064,-0.212041169545,-0.0782936024465,0.043411632877,-0.0735296948615
-0.0579405280749,-0.0219397249708,0.0276953684208,-0.102009353307,0.0303136794885,-0.171145163185,-0.115379468254,-0.112754436925,-0.170266383608,-0.0142406052581,-0.0299225360395,-0.280592712767,-0.0521025925829,0.00354647190519,0.019472274135,0.0591002254844,-0.00777605140731,-0.0162354441524,0.159677299191,0.0500091987945,-0.0573533799873,0.159040847902,-0.103806348905,-0.0417015748753,0.0471351116975,-0.0518753033355
-0.122845969051,0.0573087819092,-0.0137509736938,-0.167911021667,0.00194451296892,-0.154312838962,-0.157753911619,-0.0371133659972,-0.147341278279,-0.0132327408471,-0.0682522572547,-0.310316301793,-0.0776240744737,-0.0482145000511,-0.00328145139819,0.115847643695,-0.0406148645773,0.0364076580633,0.204954722266,0.0833277244359,0.0314472953348,0.193902497647,-0.00973195167595,-0.082992367208,0.00242422999981,-0.0882704655095
-0.276933870634,0.0588394023618,-0.091137706076,-0.301504115006,-0.0586343924444,-0.127576528977,-0.179626452586,-0.0482123820893,-0.119909048932,0.0343499994783,-0.13592119043,-0.317210301773,-0.0993239889219,-0.0387312092073,-0.138497510446,0.0658212928816,-0.169984353005,-0.0814367628292,0.208434387286,0.0924027019923,-0.0447602152823,0.16449774075,0.0565069022936,-0.123492515787,-0.149368107874,-0.146367621355
-0.242022121778,-0.00795438569225,-0.127687392225,-0.253662999,-0.00279682880828,-0.0721375150498,-0.128432140412,-0.0918285400425,-0.0686133784168,0.0581107765593,-0.141378774744,-0.200460625115,-0.0965531613014,0.0138995020989,-0.229139211148,-0.0587746035473,-0.191550673714,-0.147272266492,0.156610799745,0.0942736465845,-0.0532366313778,0.0885364838369,0.0219841831519,-0.117435156465,-0.208331612167,-0.139527476411
0.00182641588854,-2.92874810812e-05,-5.37693542491e-06,-1.5509055912e-05,-9.32255172515e-06,-5.35077818164e-06,-5.62204818927e-06,-1.77987898262e-05,-5.33127205983e-06,-6.03340564268e-06,-1.19003691703e-05,-5.49928414037e-06,-1.82948269234e-05,-0.000258606089532,-3.99265370066e-05,-8.75234949754e-06,-5.97228755612e-06,-4.37087884e-05,-2.14357643455e-05,-5.97720633959e-06,-7.0605859134e-06,-5.43362113758e-06,-2.17828590754e-05,-1.9701606684e-05,-5.64186089445e-06,-6.2590932613e-06
6.86327577326e-05,-6.18495056435e-07,-2.02514726377e-07,-5.02262548885e-07,-4.10531244763e-07,-2.00269266742e-07,-2.05114059316e-07,-3.26351168046e-07,-2.00151312711e-07,-2.03357607101e-07,-4.70545610114e-07,-2.06895868772e-07,-6.68809411874e-07,-9.36040802033e-06,-1.79138534919e-06,-2.08699972902e-07,-2.08089570283e-07,-1.09150911914e-06,-3.38011838565e-07,-2.070393035e-07,-2.25175017293e-07,-2.00666095574e-07,-4.57160293896e-07,-4.22176541712e-07,-2.00926887426e-07,-2.11561833735e-07
0.0,0.0,0.0,0.0,0.0,0.0,0.0,0.0,0.0,0.0,0.0,0.0,0.0,0.0,0.0,0.0,0.0,0.0,0.0,0.0,0.0,0.0,0.0,0.0,0.0,0.0
0.0,0.0,0.0,0.0,0.0,0.0,0.0,0.0,0.0,0.0,0.0,0.0,0.0,0.0,0.0,0.0,0.0,0.0,0.0,0.0,0.0,0.0,0.0,0.0,0.0,0.0
0.0,0.0,0.0,0.0,0.0,0.0,0.0,0.0,0.0,0.0,0.0,0.0,0.0,0.0,0.0,0.0,0.0,0.0,0.0,0.0,0.0,0.0,0.0,0.0,0.0,0.0
-1.02767511537e-07,-3.2144740093e-07,-2.32291412385e-06,-6.46672105467e-07,-1.05027697411e-07,-1.00054152565e-07,-1.19886680718e-07,-1.00180183945e-07,-1.00055227974e-07,-1.22355034359e-07,-1.00093722974e-07,-1.0723165213e-07,-1.01501960783e-07,-1.00280444055e-07,-6.35374608111e-05,-1.00110348262e-07,-1.7089171442e-07,-1.05808217251e-07,-1.14947425186e-07,-1.00057040559e-07,6.77233211181e-05,-1.00320554402e-07,-1.02789515928e-07,-1.00051659931e-07,-1.00051146397e-07,-1.10245443336e-07
-8.19137382426e-06,-3.86719962171e-05,-0.00016815047733,-1.82605302444e-05,-1.40283261561e-05,-3.76980350592e-06,-1.26843901538e-05,-4.09912889413e-06,-3.02151434953e-06,-7.22222904159e-06,0.000170841877736,-4.17976665898e-05,-1.33742549524e-05,-6.17561802109e-06,-0.00102732494624,-3.06753141005e-06,-2.65008613553e-05,-5.71041828416e-05,-5.62053863601e-06,-4.45206002788e-06,0.00131674771707,-4.3973408746e-06,-8.14335838902e-05,-3.89660915936e-06,-2.50043172382e-06,-1.00901296621e-05
-3.70845571535e-05,-0.000105086655861,-0.000612001456674,0.000658589541612,-0.000166733060606,-1.67641431641e-05,-4.235143101e-05,-1.68148996761e-05,-1.22607890554e-05,-2.26683344713e-05,0.00239661226149,-0.000423015592675,-3.95064397041e-05,-9.73791436318e-05,-0.00154780766598,-1.22049263107e-05,-7.93859789614e-05,-0.000493167572107,-2.08283407444e-05,-2.20969280492e-05,0.00217750456989,-2.24586584978e-05,-0.00054373067302,-1.85699187527e-05,-9.49749088548e-06,-4.91653307634e-05
-0.189669534343,-0.00305662000064,-0.246768255148,-0.0656837176731,-0.101531358382,0.0253856989325,-0.137040339356,-0.0591135598058,-0.0403754215175,-0.033220018712,-0.0655776248176,-0.0885894426919,-0.0446164367136,-0.187837096194,-0.216113236608,-0.112985573872,-0.178833443307,-0.0866076617614,-0.195063982558,0.118736211958,-0.0687421016642,0.172889672633,0.132367015676,-0.105531113068,-0.194968406207,0.0505200914097
-0.27636991084,-0.0393143872756,-0.321482486168,-0.101157700556,-0.0804664145776,0.0330382830169,-0.19975050343,-0.0513157636201,-0.0691298205302,-0.0371222001958,-0.0559722285622,-0.143604748845,-0.0572425151583,-0.171017549425,-0.25008828618,-0.12688166748,-0.221948974998,-0.106722445529,-0.159977400802,0.165973079219,-0.0139347739594,0.213212516008,0.17436566292,-0.101165696102,-0.184940229409,0.0558300544319
-0.255327469125,-0.0856446248157,-0.243480157611,-0.0887746111671,-0.049821997261,0.0519798465182,-0.149878138203,-0.0109585655186,-0.0872168219923,-0.0231406777315,-0.0403702591873,-0.157293817657,-0.0630668893295,-0.0498790123423,-0.129203312615,-0.0990040912207,-0.163609871622,-0.08249513631,-0.0542753299148,0.188256833369,0.0411672828393,0.162929937802,0.0217096906886,-0.00963195192051,-0.063443891378,0.0618905601914
-0.230209778059,-0.14863683431,-0.143670431189,-0.0727097540936,-0.0791530456353,0.0470545827093,-0.094653017003,-0.0371513721466,-0.104739032056,-0.00186235395941,-0.116656998111,-0.181420981621,-0.0164611652599,-0.0228715645461,-0.0496602187733,-0.0787723415916,-0.0973147331955,-0.0840689694326,-0.0344725318284,0.178003647812,0.0149375575363,0.0669639733185,-0.0770036166683,0.0385617495782,0.030032315819,0.0573741215011
-0.211510858319,-0.127861007617,-0.0838128448452,-0.0644749924171,-0.109434741948,0.0205842986026,-0.0890829501658,-0.0497181623983,-0.13104948118,0.00700729797116,-0.169295137546,-0.216975691292,-0.00849958809876,0.0143445326436,-0.0635748969796,-0.0741828624481,-0.0908934161677,-0.148687454464,-0.0861846407999,0.127839750281,-0.039408718253,-0.054629222061,-0.126838311459,0.00383891669618,0.066335222317,0.0395348971148
-0.19732615923,-0.145239294742,-0.092137586286,-0.0847549000355,-0.133031652619,-0.020328686036,-0.0926068935568,-0.0949570452457,-0.153104276169,-0.0053644113401,-0.144611320765,-0.240534249501,0.0109372687031,0.0157401317864,-0.0720197968413,-0.0632622772147,-0.114742854115,-0.174848133536,-0.112612736748,0.0692357357321,-0.0597635025836,-0.188320883254,-0.164121505212,-0.0585125475813,0.0426009993033,0.0223218357053
-0.184139268698,-0.14600898646,-0.114933695208,-0.104784473425,-0.123827818058,-0.0757293057608,-0.0955360218559,-0.0730714888069,-0.167478392943,-0.0322130940924,-0.13336477181,-0.228580482634,0.0168926184814,-0.0168697119345,-0.0575265964467,-0.0599023518426,-0.0935717223419,-0.190861332,-0.131235754632,0.0402544967575,-0.0687813765237,-0.264723130392,-0.215863780734,-0.0634788531424,0.0350615064212,-0.00401608371498
-0.152068868287,-0.138917116004,-0.0532459473244,-0.0709275115,-0.101583483688,-0.138058973239,-0.0710905126006,-0.0191857744134,-0.151017063037,-0.0246643305379,-0.111315075362,-0.2078044156,0.0210175825257,-0.0323458900075,0.00857330739808,-0.0933089580927,-0.0299565903601,-0.146565838081,-0.147126974074,0.0992046156427,-0.0726736587212,-0.287933891398,-0.230379877229,-0.0763451798281,-0.0217680293116,-0.0393311401875
-0.0453899096778,-0.151982370147,0.0487716720337,-0.0104065711954,-0.0721773616468,-0.185925965272,-0.00543989133761,-0.00977832935743,-0.119211864785,0.0278928091531,-0.167991670643,-0.208705966401,0.018196166273,-0.0944564960768,0.051992049709,-0.161961079409,0.0252475496913,-0.089927234055,-0.151735706594,0.200500171174,-0.0631208143969,-0.293609238467,-0.167558717115,-0.144375822913,-0.129677825428,-0.0827878707354
0.0573879137072,-0.176713004927,0.105453008104,0.0159257476732,-0.0437818883627,-0.200315421182,0.0356033297617,-0.0898559297002,-0.0910316844551,0.0353379519038,-0.184682213453,-0.211948450069,-0.0279581321871,-0.134468352425,0.160494278774,-0.18940028929,0.0235681841085,-0.0765309296277,-0.176686870098,0.310133624339,-0.190493592511,-0.289757619543,-0.104416055985,-0.228895840792,-0.226799916247,-0.116497170838
0.179814204668,-0.176146678957,0.137371543411,0.0671898874894,-0.0139660654892,-0.196836292017,0.00211398375377,-0.212602230451,-0.0561126055882,0.0564468385147,-0.126203759882,-0.210256720655,-0.0553425952634,-0.199221251866,0.242860721872,-0.141780628345,-0.00177372953065,0.00322319433984,-0.118189315469,0.38427647227,-0.283897773885,-0.281043739738,-0.126623008816,-0.241482636315,-0.260046937021,-0.12565289712
0.216746671319,-0.181503989494,0.116828758844,0.0752470317071,0.0248638310215,-0.179545143337,-0.0551603346885,-0.234470638121,-0.058371798577,0.103023068102,-0.0794744043416,-0.210593634367,-0.0761356103713,-0.337727432468,0.307704181563,-0.128161311826,-0.0283687069387,0.0791381842151,-0.0969580404213,0.328171073485,-0.277407074662,-0.24663014836,-0.21358638492,-0.173522513629,-0.0821658826143,-0.0836508560488
0.208330740438,-0.193719021458,0.0355006701003,0.0110654849124,-0.000900394664017,-0.178891886553,-0.0917403530456,-0.183103102162,-0.115078645192,0.0904885567545,-0.0547462618664,-0.227690119592,-0.0979464800032,-0.444007495349,0.272961577411,-0.093539282587,-0.0373782574056,0.0608665928083,-0.106145052673,0.151181967828,-0.226325756603,-0.174404156375,-0.330041306632,-0.128392034867,0.113582308293,-0.0516652239096
0.152328325192,-0.161596882418,-0.0480655464912,-0.0519841898137,-0.0338531893976,-0.188485170821,-0.125587936581,-0.111808273622,-0.169592356168,0.0459850318627,-0.078592856619,-0.244393826843,-0.117102574912,-0.354745612042,0.147056307208,0.0264183392644,-0.0232040442903,-0.0165495534295,-0.107967194527,0.00377855803259,-0.127564650955,-0.0982259491678,-0.394987248948,-0.150065501073,0.0921548232343,-0.0333715954207
0.0490447800905,-0.110600663588,-0.075030626292,-0.0927030016076,-0.0470765347741,-0.201221029574,-0.148709772462,-0.0962636779289,-0.19929825858,0.0525777552814,-0.0690749964208,-0.257849424397,-0.0834907603754,-0.0983847010528,0.0539672414871,0.111161055705,-0.0215773508825,-0.0454932736865,-0.0458496242932,-0.0240572534469,-0.0948025033224,-0.0259535648882,-0.345068155735,-0.134619086601,0.0185347919059,0.00273413468622
-0.0485506804855,-0.063881991747,-0.0494145535636,-0.0947731755018,-0.0540825637509,-0.20943101161,-0.160289512617,-0.121181962368,-0.206076193246,0.0524024887772,-0.0383827490873,-0.271190606628,-0.024593281883,0.0517742585173,0.00700516783969,0.114803419491,-0.00433274143374,-0.054165757464,0.0467664281945,0.0190065125773,-0.106020154357,0.0431855516897,-0.21425690719,-0.103538500543,0.0141687173021,0.00488723439745
-0.0990285609488,0.0290653637268,-0.0420571602911,-0.0474568420573,-0.0364000350267,-0.208440098627,-0.185733906416,-0.0815325820437,-0.190513586222,0.0289708537329,-0.0600319760186,-0.292958878623,-0.0112307209513,0.00210289564478,-0.0149026540567,0.139750411125,-0.00326890368377,-0.0344890390149,0.123196067334,0.0648784184141,-0.0234185540421,0.104116793309,-0.0718052300453,-0.116627228423,-0.00995957045321,-0.000881237107994
-0.166327745983,0.120963937079,-0.0542519692268,-0.049074905841,-0.0849888933244,-0.197168274068,-0.231662176809,-0.0554046844256,-0.168942051309,-0.00907352104915,-0.144003870436,-0.329821911231,-0.0787877033715,-0.0402714846559,0.00433091283653,0.206753234541,-0.036382941394,0.0275611340828,0.182632279937,0.0951565156722,0.0522594483369,0.078532018779,0.00290463166449,-0.172252552324,-0.126975520155,-0.0588005602943
-0.334867457346,0.109416572119,-0.101502168455,-0.153284360919,-0.106890735468,-0.169079331055,-0.25918127768,-0.151859924619,-0.133243298326,-0.00135896735097,-0.24070479204,-0.332378630069,-0.120659239301,-0.0371824299858,-0.10703525335,0.170836201303,-0.136423221217,-0.0193129676159,0.230278609864,0.088712066351,0.00284982134412,0.0119906565315,0.0782647020061,-0.225130222501,-0.263995789806,-0.123726427858
-0.262938227894,0.0192182697158,-0.130597291073,-0.180933421528,-0.0160824664981,-0.0971398574656,-0.177227380211,-0.182915641845,-0.0737370849336,0.0298416559245,-0.217049061582,-0.198769289526,-0.131882317712,-0.00911145898635,-0.148887899531,0.00717555779402,-0.164173869925,-0.0620686218182,0.271216538584,0.0902334297509,-0.0195942952635,-0.0319725758422,-0.0089011151969,-0.174381015415,-0.260236409068,-0.119443390999
0.00182073321577,-3.37490665094e-05,-5.85600162411e-06,-1.82494428305e-05,-1.01252199432e-05,-5.87688938426e-06,-6.83441542034e-06,-3.13564073199e-05,-5.85005423159e-06,-7.20946755106e-06,-8.68134374787e-06,-5.92497588805e-06,-2.2305881788e-05,-0.000133805406777,-4.32976824972e-05,-1.04795651339e-05,-6.80712643656e-06,-3.73061064926e-05,-3.9289990945e-05,-6.78924942295e-06,-8.45447660894e-06,-6.18583241187e-06,-4.35322609561e-05,-4.46388806856e-05,-6.93233201395e-06,-8.17987513368e-06
0.000144550566685,-1.7102435739e-06,-4.66824985386e-07,-8.76345379872e-07,-9.86210651875e-07,-4.64691946621e-07,-5.09205609093e-07,-1.3835795668e-06,-4.63914798943e-07,-4.99124264571e-07,-6.22810310341e-07,-4.6730966418e-07,-1.78362683985e-06,-5.55083931536e-06,-4.11119632957e-06,-5.47212876233e-07,-4.87256438734e-07,-1.6017984169e-06,-1.52401731072e-06,-4.89120355983e-07,-5.3155062728e-07,-4.75937459722e-07,-1.85643859109e-06,-1.9178105221e-06,-5.03779590171e-07,-5.31907862164e-07
0.0,0.0,0.0,0.0,0.0,0.0,0.0,0.0,0.0,0.0,0.0,0.0,0.0,0.0,0.0,0.0,0.0,0.0,0.0,0.0,0.0,0.0,0.0,0.0,0.0,0.0
0.0,0.0,0.0,0.0,0.0,0.0,0.0,0.0,0.0,0.0,0.0,0.0,0.0,0.0,0.0,0.0,0.0,0.0,0.0,0.0,0.0,0.0,0.0,0.0,0.0,0.0
0.0,0.0,0.0,0.0,0.0,0.0,0.0,0.0,0.0,0.0,0.0,0.0,0.0,0.0,0.0,0.0,0.0,0.0,0.0,0.0,0.0,0.0,0.0,0.0,0.0,0.0
-1.58103863903e-08,-4.94534462969e-08,-3.5737140367e-07,-9.94880162257e-08,-1.6158107294e-08,-1.53929465485e-08,-1.84441047258e-08,-1.54123359915e-08,-1.5393111996e-08,-1.88238514399e-08,-1.53990343037e-08,-1.64971772507e-08,-1.56156862742e-08,-1.54277606239e-08,-9.77499397093e-06,-1.54015920403e-08,-2.62910329877e-08,-1.62781872694e-08,-1.76842192593e-08,-1.53933908552e-08,1.04189724797e-05,-1.54339314465e-08,-1.58137716812e-08,-1.53925630663e-08,-1.53924840611e-08,-1.69608374364e-08
-3.11983555927e-06,-1.22208163192e-05,-5.99598758335e-05,-8.93906732602e-06,-5.19137833679e-06,-1.73380173932e-06,-4.2234805912e-06,-1.76378441831e-06,-1.48146727673e-06,-2.7087406358e-06,4.94580164454e-05,-1.4582574042e-05,-4.17510338983e-06,-2.51119176654e-06,-0.000673527671436,-1.48072566502e-06,-8.16594617126e-06,-1.98504107794e-05,-2.22343819968e-06,-1.95842543117e-06,0.00077590494412,-1.8257039564e-06,-2.81602987249e-05,-1.77515360993e-06,-1.30614445404e-06,-3.77513251165e-06
-3.0366738278e-05,-8.48243703684e-05,-0.000465710935722,0.000270497344273,-0.000147011026458,-1.36311952494e-05,-3.3750204382e-05,-1.33080163543e-05,-9.84974050788e-06,-1.81586315448e-05,0.0017477632428,-0.0003838695502,-3.15632102714e-05,-0.0001096527871,-0.00146703127928,-9.67021309993e-06,-6.38675113893e-05,-0.000463800256171,-1.55403624453e-05,-1.74978942082e-05,0.00200466511004,-1.68521257236e-05,-0.000466670323073,-1.49991927502e-05,-7.48997356381e-06,-4.07688249669e-05
-0.217991946182,-0.0669011863974,-0.209901396706,-0.0843248005256,-0.0711828453451,0.0162194618538,-0.146537426569,-0.100266821039,-0.0381314622285,-0.0439951801561,-0.0933683688614,-0.0935139562397,-0.0578304902361,-0.189284072406,-0.210846935812,-0.129920256311,-0.167744561365,-0.0699453929172,-0.0951170560278,0.151714039532,-0.011709896472,0.143003167954,0.106916793471,-0.153568630457,-0.232426792037,0.0155920202878
-0.298821990154,-0.145117991756,-0.219470403335,-0.145343518145,-0.0495575391973,0.0288520949003,-0.196902508185,-0.108821761261,-0.0769043503117,-0.0918617309182,-0.09056777488,-0.160797900995,-0.0710627966009,-0.178998705208,-0.194233307236,-0.129763380961,-0.176130654056,-0.0777601170423,-0.0146188573284,0.191256278125,-0.0488381319517,0.177202279758,0.170790112345,-0.17625832266,-0.242765659174,-0.0330452467968
-0.242239707792,-0.183678728552,-0.141741399373,-0.139796307274,-0.0273857412603,0.0495358558971,-0.121845970479,-0.0600018626136,-0.102773325904,-0.118557828567,-0.0766471980435,-0.172017048538,-0.071524087464,-0.0776697015072,-0.107669437545,-0.0968323450492,-0.0989814066696,-0.0611043904954,0.077720268229,0.223346404167,-0.0496781216464,0.150321231049,0.0256681124195,-0.0993573085608,-0.126306087681,-0.0528148472555
-0.186445330727,-0.190027861677,-0.0927503799614,-0.1203637406,-0.0592575455723,0.0480551967298,-0.0990030664964,-0.0744537852071,-0.125673860317,-0.106974758184,-0.146186027071,-0.183793582334,-0.0295280884073,-0.0272191051765,-0.105377313917,-0.0911803134119,-0.0803815291549,-0.0954133984228,0.0664700105178,0.235828902123,-0.01854734292,0.0836280142752,-0.100380258781,-0.0177814296229,-0.0181652227421,-0.0510883640514
